svm_type c_svc
kernel_type rbf
gamma 0.125
nr_class 2
total_sv 588
rho 6.38988
label 1 -1
probA -2.43036
probB -0.0683675
nr_sv 247 341
SV
2.34004147340232 1:0.3 2:0.125 3:0.4375 4:0.2875 5:0.125 6:0.275 7:0.2 8:0.0875 9:0.2375 10:0.475 11:0.1125 12:0.1 13:0.35 14:0.0875 15:0.125 16:0.125 17:0.15 18:0.2 19:0.1625 20:0.2125 21:0.1125 22:0.2875 23:0.175 24:0.75 25:0.1375 26:0.225 27:0.4875 28:0.1 29:0.2 30:0.8625 31:0.325 32:0.45 33:0.6375 34:0.1875 35:0.3875 36:0.175 37:0.225 38:0.2 39:0.325 40:0.1875 41:0.3375 42:0.2125 43:0.225 44:0.3 45:0.275 46:0.3125 47:0.25 48:0.2625 49:0.1125 50:0.25 51:0.1875 52:0.2125 53:0.0125 54:0.25 55:0.175 56:0.1875 57:0.2 58:0.275 59:0.175 60:0.3625 61:0.2335 62:0.1475 63:0.3756 64:0.1471 65:0.2241 66:0.2 67:0.2498 68:0.2119 69:0.2514 70:0.3845 71:0.1628 72:0.1869 73:0.2342 74:0.1807 75:0.1946 76:0.194 77:0.071 78:0.2322 79:0.2091 80:0.315 81:0.2196 82:0.2229 83:0.2981 84:0.3441 85:0.2647 86:0.2378 87:0.3532 88:0.1715 89:0.205 90:0.1343 91:0.3008 92:0.398 93:0.1634 94:0.2713 95:0.2043 96:0.283 97:0.1539 98:0.1783 99:0.1929 100:0.291 101:0.2277 102:0.1972 103:0.2112 104:0.2462 105:0.2601 106:0.2739 107:0.2552 108:0.2473 109:0.1213 110:0.2182 111:0.2869 112:0.2667 113:0.0558 114:0.2376 115:0.2057 116:0.2525 117:0.3413 118:0.2317 119:0.1962 120:0.3109 
8 1:0.2125 2:0.2125 3:0.1875 4:0.325 5:0.375 6:0.1 7:0.0875 8:0.375 9:0.1875 10:0.1875 11:0.1125 12:0.1 13:0.1375 14:0.2125 15:0.2 16:0.1125 17:0.2875 18:0.1625 19:0.5875 20:0.2125 21:0.1125 22:0.6125 23:0.1625 24:0.2 25:0.3625 26:0.3875 27:0.3875 28:0.7125 29:0.4875 30:0.2375 31:0.1625 32:0.5125 33:0.2 34:0.4125 35:0.225 36:0.4 37:0.1 38:0.175 39:0.2375 40:0.2875 41:0.225 42:0.275 43:0.275 44:0.175 45:0.25 46:0.175 47:0.1625 48:0.0375 49:0.1875 50:0.15 51:0.2625 52:0.25 53:0.2375 54:0.175 55:0.3625 56:0.225 57:0.0875 58:0.15 59:0.1875 60:0.075 61:0.2446 62:0.2668 63:0.2929 64:0.3087 65:0.4415 66:0.2051 67:0.1753 68:0.2136 69:0.1917 70:0.2312 71:0.1628 72:0.1205 73:0.2334 74:0.2707 75:0.2843 76:0.2479 77:0.198 78:0.2753 79:0.3517 80:0.315 81:0.2196 82:0.3675 83:0.1887 84:0.1973 85:0.1479 86:0.2027 87:0.3869 88:0.4065 89:0.1651 90:0.293 91:0.2232 92:0.1619 93:0.2025 94:0.1902 95:0.254 96:0.1932 97:0.1662 98:0.1624 99:0.2268 100:0.3322 101:0.2696 102:0.226 103:0.2885 104:0.1468 105:0.2374 106:0.2976 107:0.2493 108:0.0353 109:0.2254 110:0.2025 111:0.281 112:0.3042 113:0.1917 114:0.1953 115:0.2936 116:0.1959 117:0.155 118:0.1502 119:0.2728 120:0.2723 
8 1:0.3 2:0.2875 3:0.4375 4:0.1875 5:0.1125 6:0.275 7:0.25 8:0.175 9:0.1125 10:0.1375 11:0.2125 12:0.0875 13:0.175 14:0.2125 15:0.125 16:0.1625 17:0.55 18:0.1625 19:0.1625 20:0.575 21:0.0875 22:0.2875 23:0.1875 24:0.275 25:0.225 26:0.5875 27:0.5375 28:0.275 29:0.4875 30:0.3125 31:0.1 32:0.375 33:0.125 34:0.3375 35:0.2375 36:0.225 37:0.2625 38:0.3875 39:0.1625 40:0.35 41:0.25 42:0.125 43:0.225 44:0.125 45:0.2125 46:0.05 47:0.2375 48:0.175 49:0.1875 50:0.2625 51:0.1875 52:0.1625 53:0.375 54:0.1875 55:0.0625 56:0.2625 57:0.2125 58:0.15 59:0.2875 60:0.2375 61:0.2335 62:0.2738 63:0.3756 64:0.2393 65:0.1472 66:0.2 67:0.1235 68:0.2279 69:0.1624 70:0.0884 71:0.2205 72:0.2326 73:0.2796 74:0.2707 75:0.1946 76:0.2523 77:0.3508 78:0.2753 79:0.2091 80:0.4136 81:0.1727 82:0.2229 83:0.1746 84:0.1437 85:0.3239 86:0.3282 87:0.1299 88:0.2701 89:0.1651 90:0.2271 91:0.1622 92:0.1962 93:0.2179 94:0.2044 95:0.1945 96:0.1848 97:0.2463 98:0.3398 99:0.3344 100:0.1676 101:0.3089 102:0.1277 103:0.18 104:0.289 105:0.2654 106:0.072 107:0.2115 108:0.2078 109:0.2254 110:0.242 111:0.2249 112:0.1464 113:0.289 114:0.2759 115:0.1317 116:0.1514 117:0.3056 118:0.248 119:0.2699 120:0.2088 
4.222283070914895 1:0.3 2:0.1625 3:0.4125 4:0.1 5:0.2375 6:0.125 7:0.1875 8:0.4875 9:0.1125 10:0.35 11:0.3 12:0.1125 13:0.1 14:0.15 15:0.325 16:0.0875 17:0.1125 18:0.3625 19:0.2875 20:0.2125 21:0.55 22:0.225 23:0.275 24:0.1625 25:0.5625 26:0.2375 27:0.5375 28:0.1875 29:0.25 30:0.8625 31:0.8875 32:0.175 33:0.6375 34:0.45 35:0.4875 36:0.1375 37:0.2625 38:0.1375 39:0.2375 40:0.175 41:0.1125 42:0.175 43:0.15 44:0.2 45:0.2125 46:0.1625 47:0.25 48:0.125 49:0.1875 50:0.1375 51:0.2375 52:0.2 53:0.0875 54:0.1625 55:0.0625 56:0.1125 57:0.225 58:0.1125 59:0.125 60:0.175 61:0.2398 62:0.2101 63:0.3092 64:0.21 65:0.2047 66:0.1596 67:0.2634 68:0.36 69:0.1989 70:0.2222 71:0.2184 72:0.1629 73:0.1567 74:0.073 75:0.2779 76:0.1404 77:0.2282 78:0.3291 79:0.2088 80:0.315 81:0.4425 82:0.236 83:0.1719 84:0.2833 85:0.3653 86:0.2342 87:0.1299 88:0.3091 89:0.2977 90:0.1343 91:0.1403 92:0.2262 93:0.1634 94:0.1454 95:0.3898 96:0.1519 97:0.2463 98:0.2187 99:0.2268 100:0.2345 101:0.1748 102:0.3397 103:0.171 104:0.1728 105:0.2574 106:0.2723 107:0.1822 108:0.2243 109:0.2254 110:0.129 111:0.2766 112:0.1847 113:0.1599 114:0.2353 115:0.0377 116:0.0901 117:0.2049 118:0.1621 119:0.3853 120:0.2307 
2.164164049832793 1:0.175 2:0.3375 3:0.075 4:0.15 5:0.15 6:0.1625 7:0.5625 8:0.1875 9:0.2875 10:0.35 11:0.1125 12:0.1125 13:0.1375 14:0.3 15:0.0625 16:0.1125 17:0.3 18:0.25 19:0.0875 20:0.575 21:0.1125 22:0.2875 23:0.2 24:0.75 25:0.35 26:0.3875 27:0.4125 28:0.1875 29:0.4875 30:0.8625 31:0.1625 32:0.5125 33:0.6375 34:0.4625 35:0.125 36:0.275 37:0.1875 38:0.35 39:0.15 40:0.125 41:0.25 42:0.25 43:0.15 44:0.2125 45:0.2625 46:0.25 47:0.225 48:0.15 49:0.1125 50:0.175 51:0.2125 52:0.1625 53:0.1375 54:0.0375 55:0.125 56:0.225 57:0.0875 58:0.15 59:0.275 60:0.2375 61:0.2238 62:0.2884 63:0.2102 64:0.2725 65:0.1425 66:0.2928 67:0.3503 68:0.2059 69:0.2165 70:0.2222 71:0.1628 72:0.1792 73:0.0834 74:0.2922 75:0.164 76:0.2479 77:0.3119 78:0.189 79:0.2615 80:0.4136 81:0.2196 82:0.1762 83:0.2323 84:0.3441 85:0.2344 86:0.2027 87:0.2859 88:0.3091 89:0.1651 90:0.1343 91:0.2232 92:0.1619 93:0.1634 94:0.4045 95:0.1757 96:0.2914 97:0.2285 98:0.2361 99:0.1779 100:0.1531 101:0.3089 102:0.2144 103:0.171 104:0.2064 105:0.2448 106:0.2345 107:0.213 108:0.2998 109:0.1213 110:0.2874 111:0.2221 112:0.1419 113:0.2823 114:0.0707 115:0.0862 116:0.1959 117:0.155 118:0.4362 119:0.2021 120:0.2088 
2.144801622900863 1:0.05 2:0.1625 3:0.25 4:0.225 5:0.375 6:0.175 7:0.2875 8:0.375 9:0.1125 10:0.1875 11:0.0875 12:0.1875 13:0.075 14:0.2125 15:0.25 16:0.2875 17:0.1625 18:0.4875 19:0.1625 20:0.225 21:0.15 22:0.6125 23:0.275 24:0.275 25:0.2375 26:0.2875 27:0.5375 28:0.6375 29:0.4875 30:0.3125 31:0.8875 32:0.45 33:0.175 34:0.1125 35:0.15 36:0.275 37:0.1875 38:0.125 39:0.2375 40:0.175 41:0.2375 42:0.25 43:0.2875 44:0.2 45:0.1375 46:0.3125 47:0.1 48:0.2 49:0.2 50:0.125 51:0.1875 52:0.075 53:0.1375 54:0.1875 55:0.0625 56:0.35 57:0.225 58:0.2375 59:0.1125 60:0.175 61:0.2009 62:0.2101 63:0.1687 64:0.3165 65:0.4415 66:0.2212 67:0.1954 68:0.2136 69:0.1624 70:0.1931 71:0.0734 72:0.2623 73:0.1728 74:0.2707 75:0.3477 76:0.202 77:0.2524 78:0.3747 79:0.2091 80:0.2244 81:0.2231 82:0.3675 83:0.1719 84:0.1437 85:0.3125 86:0.3208 87:0.1299 88:0.1561 89:0.1651 90:0.2271 91:0.1403 92:0.398 93:0.0862 94:0.2129 95:0.1871 96:0.2914 97:0.2285 98:0.1711 99:0.3046 100:0.1932 101:0.2638 102:0.2478 103:0.262 104:0.1728 105:0.2097 106:0.2739 107:0.1311 108:0.3298 109:0.2234 110:0.1769 111:0.2869 112:0.0654 113:0.1046 114:0.2759 115:0.1317 116:0.3482 117:0.2049 118:0.2207 119:0.171 120:0.2696 
8 1:0.175 2:0.225 3:0.225 4:0.375 5:0.125 6:0.275 7:0.2875 8:0.125 9:0.1875 10:0.1375 11:0.225 12:0.1 13:0.15 14:0.3 15:0.325 16:0.1625 17:0.55 18:0.15 19:0.125 20:0.225 21:0.55 22:0.2875 23:0.1875 24:0.25 25:0.2375 26:0.3875 27:0.5375 28:0.6375 29:0.2125 30:0.8625 31:0.6625 32:0.1375 33:0.075 34:0.1625 35:0.2375 36:0.1375 37:0.225 38:0.25 39:0.15 40:0.175 41:0.225 42:0.2125 43:0.15 44:0.15 45:0.2125 46:0.175 47:0.2 48:0.125 49:0.175 50:0.2375 51:0.075 52:0.05 53:0.2625 54:0.05 55:0.275 56:0.225 57:0.275 58:0.1375 59:0.225 60:0.1875 61:0.2238 62:0.1975 63:0.2685 64:0.3544 65:0.2241 66:0.2 67:0.1954 68:0.1815 69:0.1917 70:0.0884 71:0.266 72:0.1869 73:0.2415 74:0.2422 75:0.2122 76:0.2523 77:0.3508 78:0.1877 79:0.3057 80:0.2185 81:0.4425 82:0.1762 83:0.1746 84:0.2969 85:0.3125 86:0.2027 87:0.1299 88:0.1561 89:0.2251 90:0.1343 91:0.3457 92:0.152 93:0.2246 94:0.2755 95:0.225 96:0.1833 97:0.1262 98:0.2746 99:0.2187 100:0.1932 101:0.2696 102:0.3222 103:0.171 104:0.2371 105:0.2574 106:0.1928 107:0.2893 108:0.2243 109:0.1628 110:0.2579 111:0.0792 112:0.1415 113:0.2051 114:0.1612 115:0.3572 116:0.1959 117:0.1705 118:0.2061 119:0.2601 120:0.197 
0.607744693554893 1:0.3 2:0.2125 3:0.1 4:0.375 5:0.2 6:0.1 7:0.5625 8:0.2 9:0.3125 10:0.1875 11:0.275 12:0.0875 13:0.2875 14:0.55 15:0.325 16:0.1625 17:0.1 18:0.2 19:0.3125 20:0.35 21:0.275 22:0.075 23:0.25 24:0.15 25:0.2875 26:0.2375 27:0.3 28:0.175 29:0.1125 30:0.3 31:0.8875 32:0.2375 33:0.1875 34:0.075 35:0.25 36:0.3 37:0.3375 38:0.3625 39:0.425 40:0.5 41:0.525 42:0.575 43:0.6 44:0.625 45:0.6625 46:0.7125 47:0.75 48:0.7625 49:0.7875 50:0.8125 51:0.825 52:0.8375 53:0.875 54:0.9 55:0.925 56:0.9625 57:0.975 58:0.975 59:0.975 60:1 61:0.2398 62:0.2668 63:0.2037 64:0.3544 65:0.1621 66:0.2051 67:0.3503 68:0.2488 69:0.3477 70:0.2312 71:0.3453 72:0.2326 73:0.2937 74:0.3267 75:0.2779 76:0.2523 77:0.1738 78:0.2888 79:0.2403 80:0.344 81:0.1934 82:0.1593 83:0.1985 84:0.2351 85:0.3325 86:0.2342 87:0.221 88:0.171 89:0.1612 90:0.3321 91:0.1403 92:0.3885 93:0.169 94:0.0562 95:0.055 96:0.0575 97:0.06 98:0.0626 99:0.0696 100:0.0718 101:0.0885 102:0.0981 103:0.0981 104:0.1146 105:0.1219 106:0.1268 107:0.1293 108:0.1462 109:0.1576 110:0.1622 111:0.1663 112:0.1731 113:0.1873 114:0.197 115:0.1991 116:0.2083 117:0.2129 118:0.2197 119:0.2197 120:0.2318 
2.514118152514705 1:0.3 2:0.175 3:0.4375 4:0.1875 5:0.2 6:0.3875 7:0.1875 8:0.3375 9:0.1625 10:0.2375 11:0.1125 12:0.375 13:0.525 14:0.3 15:0.2 16:0.0875 17:0.2375 18:0.2625 19:0.425 20:0.175 21:0.1375 22:0.2875 23:0.175 24:0.3875 25:0.35 26:0.2 27:0.1125 28:0.1 29:0.25 30:0.8625 31:0.15 32:0.1625 33:0.0375 34:0.1625 35:0.25 36:0.3 37:0.3375 38:0.3625 39:0.425 40:0.5 41:0.525 42:0.575 43:0.6 44:0.625 45:0.6625 46:0.7125 47:0.75 48:0.7625 49:0.7875 50:0.8125 51:0.825 52:0.8375 53:0.875 54:0.9 55:0.925 56:0.9625 57:0.975 58:0.975 59:0.975 60:1 61:0.2335 62:0.2194 63:0.3756 64:0.2393 65:0.1621 66:0.3846 67:0.2766 68:0.3168 69:0.1872 70:0.333 71:0.2402 72:0.2684 73:0.3307 74:0.2922 75:0.2843 76:0.1404 77:0.3524 78:0.2099 79:0.3245 80:0.1124 81:0.1601 82:0.2229 83:0.2981 84:0.277 85:0.2344 86:0.2214 87:0.1397 88:0.1715 89:0.2977 90:0.1343 91:0.2744 92:0.2032 93:0.0843 94:0.0454 95:0.055 96:0.0575 97:0.06 98:0.0626 99:0.0696 100:0.0718 101:0.0885 102:0.0981 103:0.0981 104:0.1146 105:0.1219 106:0.1268 107:0.1293 108:0.1462 109:0.1576 110:0.1622 111:0.1663 112:0.1731 113:0.1873 114:0.197 115:0.1991 116:0.2083 117:0.2129 118:0.2197 119:0.2197 120:0.2318 
5.606216130198826 1:0.3 2:0.15 3:0.2625 4:0.2875 5:0.175 6:0.175 7:0.5625 8:0.125 9:0.1625 10:0.1375 11:0.225 12:0.2375 13:0.1 14:0.4125 15:0.325 16:0.4 17:0.1375 18:0.4875 19:0.2875 20:0.1125 21:0.1375 22:0.3375 23:0.5 24:0.3875 25:0.35 26:0.2875 27:0.05 28:0.275 29:0.3375 30:0.2125 31:0.0875 32:0.15 33:0.125 34:0.4125 35:0.2375 36:0.2375 37:0.2875 38:0.2 39:0.175 40:0.175 41:0.25 42:0.275 43:0.2875 44:0.375 45:0.1625 46:0.3125 47:0.0875 48:0.075 49:0.375 50:0.2625 51:0.2125 52:0.2125 53:0.2625 54:0.2375 55:0.1375 56:0.1125 57:0.15 58:0.075 59:0.2875 60:0.175 61:0.2335 62:0.1662 63:0.3151 64:0.1471 65:0.2269 66:0.1212 67:0.3503 68:0.1815 69:0.1872 70:0.0884 71:0.266 72:0.1865 73:0.1567 74:0.214 75:0.2779 76:0.2311 77:0.223 78:0.3747 79:0.2088 80:0.2498 81:0.2034 82:0.1878 83:0.4033 84:0.277 85:0.2344 86:0.3208 87:0.1643 88:0.2701 89:0.3081 90:0.2138 91:0.1279 92:0.2426 93:0.1446 94:0.1902 95:0.225 96:0.2475 97:0.258 98:0.1509 99:0.2342 100:0.2345 101:0.3089 102:0.226 103:0.262 104:0.3115 105:0.1424 106:0.2056 107:0.0998 108:0.1443 109:0.3604 110:0.242 111:0.2221 112:0.2667 113:0.2051 114:0.233 115:0.2095 116:0.2441 117:0.1573 118:0.0539 119:0.2699 120:0.2307 
8 1:0.15 2:0.5125 3:0.4375 4:0.1875 5:0.2 6:0.275 7:0.2 8:0.2 9:0.2625 10:0.1875 11:0.2125 12:0.2375 13:0.1375 14:0.2125 15:0.225 16:0.625 17:0.2875 18:0.2625 19:0.1625 20:0.175 21:0.2625 22:0.225 23:0.1625 24:0.125 25:0.325 26:0.5875 27:0.225 28:0.1 29:0.725 30:0.275 31:0.0625 32:0.15 33:0.125 34:0.3375 35:0.4375 36:0.05 37:0.225 38:0.2 39:0.35 40:0.1875 41:0.1125 42:0.1125 43:0.1625 44:0.3 45:0.25 46:0.3 47:0.25 48:0.3 49:0.2 50:0.1375 51:0.075 52:0.2125 53:0.1625 54:0.2875 55:0.3625 56:0.225 57:0.275 58:0.3375 59:0.2875 60:0.3625 61:0.1861 62:0.4012 63:0.3756 64:0.2239 65:0.1621 66:0.2231 67:0.2498 68:0.3124 69:0.256 70:0.2312 71:0.2205 72:0.1865 73:0.2334 74:0.2707 75:0.2131 76:0.442 77:0.198 78:0.2099 79:0.2091 80:0.1124 81:0.3547 82:0.236 83:0.2138 84:0.1915 85:0.2712 86:0.3282 87:0.1634 88:0.0523 89:0.4712 90:0.2664 91:0.2687 92:0.2426 93:0.1446 94:0.2044 95:0.2432 96:0.0876 97:0.1262 98:0.1509 99:0.2546 100:0.291 101:0.1748 102:0.0737 103:0.1517 104:0.2462 105:0.2374 106:0.2654 107:0.2552 108:0.2515 109:0.2234 110:0.129 111:0.0833 112:0.2667 113:0.2164 114:0.4058 115:0.2936 116:0.3397 117:0.1705 118:0.3332 119:0.2699 120:0.3109 
8 1:0.1625 2:0.05 3:0.25 4:0.15 5:0.2375 6:0.1875 7:0.2125 8:0.0875 9:0.2625 10:0.2875 11:0.275 12:0.1875 13:0.1625 14:0.1 15:0.125 16:0.2375 17:0.1625 18:0.2375 19:0.2625 20:0.1 21:0.2875 22:0.2 23:0.4125 24:0.3 25:0.35 26:0.375 27:0.225 28:0.275 29:0.725 30:0.3125 31:0.2875 32:0.1375 33:0.175 34:0.1625 35:0.125 36:0.275 37:0.1875 38:0.3875 39:0.4 40:0.175 41:0.15 42:0.325 43:0.2375 44:0.3 45:0.1125 46:0.1625 47:0.25 48:0.375 49:0.2375 50:0.25 51:0.2375 52:0.1 53:0.1375 54:0.1625 55:0.125 56:0.1875 57:0.2125 58:0.2 59:0.1625 60:0.3625 61:0.295 62:0.1334 63:0.2628 64:0.2725 65:0.1584 66:0.2794 67:0.2901 68:0.0876 69:0.256 70:0.246 71:0.3453 72:0.2623 73:0.1906 74:0.1701 75:0.2111 76:0.3103 77:0.2461 78:0.2003 79:0.2994 80:0.1114 81:0.3042 82:0.3034 83:0.2844 84:0.3507 85:0.2344 86:0.2487 87:0.1634 88:0.2701 89:0.4712 90:0.2271 91:0.1514 92:0.152 93:0.0862 94:0.2755 95:0.1757 96:0.1996 97:0.2285 98:0.3398 99:0.4367 100:0.1752 101:0.2704 102:0.3807 103:0.2809 104:0.4304 105:0.1903 106:0.2723 107:0.2552 108:0.2752 109:0.2912 110:0.2182 111:0.2766 112:0.1293 113:0.2823 114:0.2233 115:0.0862 116:0.2525 117:0.3056 118:0.1769 119:0.2314 120:0.3109 
8 1:0.125 2:0.15 3:0.225 4:0.1875 5:0.2375 6:0.175 7:0.2875 8:0.1375 9:0.2375 10:0.475 11:0.2375 12:0.125 13:0.15 14:0.55 15:0.25 16:0.4 17:0.1625 18:0.3625 19:0.2375 20:0.2375 21:0.3 22:0.1 23:0.2125 24:0.25 25:0.2875 26:0.5875 27:0.2375 28:0.7125 29:0.1875 30:0.275 31:0.2875 32:0.1625 33:0.05 34:0.45 35:0.15 36:0.3 37:0.3125 38:0.1375 39:0.35 40:0.2875 41:0.15 42:0.2 43:0.0375 44:0.3 45:0.2125 46:0.3125 47:0.125 48:0.0875 49:0.1375 50:0.3 51:0.175 52:0.1625 53:0.1375 54:0.1 55:0.175 56:0.175 57:0.1125 58:0.275 59:0.1375 60:0.3 61:0.1644 62:0.1662 63:0.2685 64:0.2393 65:0.1584 66:0.2212 67:0.1954 68:0.1638 69:0.2514 70:0.3845 71:0.2399 72:0.2137 73:0.2415 74:0.3267 75:0.3477 76:0.2311 77:0.2524 78:0.3291 79:0.3165 80:0.2784 81:0.348 82:0.2837 83:0.089 84:0.2969 85:0.3325 86:0.3282 87:0.2132 88:0.4065 89:0.2815 90:0.2664 91:0.1514 92:0.2032 93:0.0619 94:0.1454 95:0.1871 96:0.1579 97:0.302 98:0.2187 99:0.2546 100:0.3322 101:0.1414 102:0.1968 103:0.0669 104:0.2209 105:0.2295 106:0.2739 107:0.1764 108:0.0842 109:0.2297 110:0.3774 111:0.2113 112:0.1419 113:0.1046 114:0.0883 115:0.2057 116:0.2146 117:0.119 118:0.2317 119:0.1599 120:0.24 
8 1:0.15 2:0.175 3:0.2125 4:0.1125 5:0.225 6:0.3875 7:0.175 8:0.1875 9:0.1875 10:0.475 11:0.2125 12:0.375 13:0.175 14:0.3 15:0.1875 16:0.2 17:0.2875 18:0.1625 19:0.1375 20:0.225 21:0.3 22:0.6125 23:0.175 24:0.75 25:0.1375 26:0.1875 27:0.5375 28:0.275 29:0.2 30:0.075 31:0.2875 32:0.5125 33:0.4125 34:0.1625 35:0.4375 36:0.3125 37:0.1 38:0.325 39:0.075 40:0.35 41:0.2 42:0.25 43:0.225 44:0.05 45:0.1875 46:0.275 47:0.225 48:0.15 49:0.1 50:0.0875 51:0.1375 52:0.2625 53:0.1375 54:0.2625 55:0.175 56:0.175 57:0.1 58:0.175 59:0.075 60:0.0625 61:0.1861 62:0.2263 63:0.1644 64:0.1592 65:0.3001 66:0.3846 67:0.2434 68:0.2059 69:0.2268 70:0.3845 71:0.2554 72:0.2684 73:0.2796 74:0.2422 75:0.345 76:0.29 77:0.2955 78:0.2753 79:0.0721 80:0.3412 81:0.348 82:0.3675 83:0.2131 84:0.3441 85:0.2647 86:0.3363 87:0.1299 88:0.2576 89:0.2262 90:0.0392 91:0.1514 92:0.1619 93:0.3697 94:0.2755 95:0.2432 96:0.325 97:0.1662 98:0.2145 99:0.0804 100:0.1676 101:0.2224 102:0.2478 103:0.2112 104:0.1052 105:0.2738 106:0.4172 107:0.2704 108:0.1375 109:0.0928 110:0.1353 111:0.2196 112:0.2356 113:0.1588 114:0.2355 115:0.2057 116:0.2146 117:0.2095 118:0.1959 119:0.0941 120:0.0715 
8 1:0.2125 2:0.225 3:0.25 4:0.375 5:0.2375 6:0.175 7:0.2 8:0.4875 9:0.2625 10:0.2875 11:0.1375 12:0.375 13:0.125 14:0.3 15:0.4125 16:0.1625 17:0.15 18:0.2 19:0.425 20:0.575 21:0.2375 22:0.6125 23:0.175 24:0.3875 25:0.3625 26:0.2125 27:0.2375 28:0.1 29:0.4875 30:0.125 31:0.2375 32:0.1625 33:0.325 34:0.3375 35:0.2375 36:0.275 37:0.05 38:0.4 39:0.2125 40:0.25 41:0.15 42:0.0875 43:0.1875 44:0.3 45:0.1875 46:0.0875 47:0.0625 48:0.0875 49:0.175 50:0.275 51:0.075 52:0.2625 53:0.125 54:0.2625 55:0.1375 56:0.1625 57:0.0875 58:0.0625 59:0.2875 60:0.175 61:0.2446 62:0.1975 63:0.2628 64:0.3544 65:0.2047 66:0.2212 67:0.2498 68:0.36 69:0.256 70:0.246 71:0.2933 72:0.2684 73:0.2854 74:0.2922 75:0.2699 76:0.2523 77:0.071 78:0.2888 79:0.3245 80:0.4136 81:0.1555 82:0.3675 83:0.2981 84:0.277 85:0.1479 86:0.1599 87:0.2132 88:0.0523 89:0.1651 90:0.2088 91:0.3792 92:0.2032 93:0.2234 94:0.3817 95:0.1945 96:0.1996 97:0.0885 98:0.1935 99:0.1916 100:0.3087 101:0.1602 102:0.1047 103:0.2423 104:0.4304 105:0.2738 106:0.1745 107:0.0846 108:0.0842 109:0.1775 110:0.2376 111:0.1153 112:0.2356 113:0.1917 114:0.2355 115:0.2095 116:0.2276 117:0.0693 118:0.0713 119:0.2699 120:0.2696 
6.54343111101289 1:0.3 2:0.175 3:0.1875 4:0.1875 5:0.3 6:0.125 7:0.0625 8:0.2375 9:0.575 10:0.2875 11:0.2125 12:0.0875 13:0.35 14:0.0875 15:0.0625 16:0.05 17:0.2875 18:0.4875 19:0.125 20:0.2375 21:0.55 22:0.0875 23:0.2 24:0.1625 25:0.075 26:0.225 27:0.4125 28:0.2625 29:0.2125 30:0.325 31:0.0875 32:0.3 33:0.6375 34:0.3375 35:0.3875 36:0.1625 37:0.3875 38:0.3875 39:0.425 40:0.5 41:0.525 42:0.575 43:0.6 44:0.625 45:0.6625 46:0.7125 47:0.75 48:0.7625 49:0.7875 50:0.8125 51:0.825 52:0.8375 53:0.875 54:0.9 55:0.925 56:0.9625 57:0.975 58:0.975 59:0.975 60:1 61:0.2398 62:0.2844 63:0.2929 64:0.2393 65:0.2962 66:0.1596 67:0.1535 68:0.2551 69:0.4114 70:0.246 71:0.2205 72:0.2326 73:0.2342 74:0.2058 75:0.164 76:0.0894 77:0.198 78:0.3747 79:0.3057 80:0.1777 81:0.4425 82:0.1609 83:0.2323 84:0.2833 85:0.2897 86:0.2378 87:0.2859 88:0.2367 89:0.2251 90:0.2667 91:0.0683 92:0.3206 93:0.1634 94:0.2044 95:0.2043 96:0.2727 97:0.4041 98:0.3398 99:0.0696 100:0.0718 101:0.0885 102:0.0981 103:0.0981 104:0.1146 105:0.1219 106:0.1268 107:0.1293 108:0.1462 109:0.1576 110:0.1622 111:0.1663 112:0.1731 113:0.1873 114:0.197 115:0.1991 116:0.2083 117:0.2129 118:0.2197 119:0.2197 120:0.2318 
2.041155035099282 1:0.1375 2:0.275 3:0.25 4:0.15 5:0.1375 6:0.3875 7:0.1875 8:0.1875 9:0.1875 10:0.35 11:0.2125 12:0.1 13:0.0875 14:0.075 15:0.525 16:0.1 17:0.2875 18:0.4875 19:0.1625 20:0.225 21:0.15 22:0.1 23:0.1625 24:0.25 25:0.225 26:0.075 27:0.3875 28:0.6375 29:0.1625 30:0.3 31:0.1875 32:0.5125 33:0.25 34:0.4625 35:0.325 36:0.3 37:0.3375 38:0.3625 39:0.425 40:0.5 41:0.525 42:0.575 43:0.6 44:0.625 45:0.6625 46:0.7125 47:0.75 48:0.7625 49:0.7875 50:0.8125 51:0.825 52:0.8375 53:0.875 54:0.9 55:0.925 56:0.9625 57:0.975 58:0.975 59:0.975 60:1 61:0.1709 62:0.2678 63:0.1687 64:0.1158 65:0.2601 66:0.3846 67:0.2766 68:0.2059 69:0.2268 70:0.2222 71:0.2205 72:0.1869 73:0.0871 74:0.2196 75:0.3548 76:0.2069 77:0.198 78:0.3747 79:0.139 80:0.2185 81:0.2231 82:0.1733 83:0.2138 84:0.2969 85:0.3239 86:0.2133 87:0.3869 88:0.1561 89:0.0906 90:0.3321 91:0.2366 92:0.1619 93:0.3278 94:0.4045 95:0.2917 96:0.0575 97:0.06 98:0.0626 99:0.0696 100:0.0718 101:0.0885 102:0.0981 103:0.0981 104:0.1146 105:0.1219 106:0.1268 107:0.1293 108:0.1462 109:0.1576 110:0.1622 111:0.1663 112:0.1731 113:0.1873 114:0.197 115:0.1991 116:0.2083 117:0.2129 118:0.2197 119:0.2197 120:0.2318 
8 1:0.3 2:0.125 3:0.2625 4:0.3875 5:0.2375 6:0.3 7:0.1 8:0.0625 9:0.2875 10:0.175 11:0.175 12:0.1 13:0.075 14:0.3625 15:0.4125 16:0.2125 17:0.275 18:0.3625 19:0.1625 20:0.2125 21:0.2625 22:0.225 23:0.3 24:0.25 25:0.125 26:0.2875 27:0.3875 28:0.1875 29:0.3375 30:0.325 31:0.8875 32:0.1625 33:0.1875 34:0.3375 35:0.25 36:0.3 37:0.3375 38:0.3625 39:0.425 40:0.5 41:0.525 42:0.575 43:0.6 44:0.625 45:0.6625 46:0.7125 47:0.75 48:0.7625 49:0.7875 50:0.8125 51:0.825 52:0.8375 53:0.875 54:0.9 55:0.925 56:0.9625 57:0.975 58:0.975 59:0.975 60:1 61:0.2398 62:0.1475 63:0.3151 64:0.299 65:0.1584 66:0.3073 67:0.2126 68:0.1751 69:0.3456 70:0.253 71:0.214 72:0.1869 73:0.1728 74:0.3005 75:0.2699 76:0.2529 77:0.2981 78:0.274 79:0.139 80:0.315 81:0.3547 82:0.236 83:0.3072 84:0.2969 85:0.1794 86:0.3208 87:0.3869 88:0.3091 89:0.3081 90:0.2667 91:0.1403 92:0.2032 93:0.169 94:0.3817 95:0.055 96:0.0575 97:0.06 98:0.0626 99:0.0696 100:0.0718 101:0.0885 102:0.0981 103:0.0981 104:0.1146 105:0.1219 106:0.1268 107:0.1293 108:0.1462 109:0.1576 110:0.1622 111:0.1663 112:0.1731 113:0.1873 114:0.197 115:0.1991 116:0.2083 117:0.2129 118:0.2197 119:0.2197 120:0.2318 
6.401691255564836 1:0.1625 2:0.1 3:0.4125 4:0.225 5:0.2375 6:0.1625 7:0.0875 8:0.1875 9:0.05 10:0.3125 11:0.5 12:0.2875 13:0.2875 14:0.55 15:0.325 16:0.2 17:0.3 18:0.25 19:0.2375 20:0.575 21:0.55 22:0.6125 23:0.2 24:0.175 25:0.225 26:0.5875 27:0.3875 28:0.275 29:0.2625 30:0.175 31:0.15 32:0.375 33:0.6375 34:0.4125 35:0.125 36:0.275 37:0.2375 38:0.325 39:0.125 40:0.1625 41:0.25 42:0.2 43:0.0625 44:0.3375 45:0.0625 46:0.2625 47:0.25 48:0.2 49:0.375 50:0.3 51:0.275 52:0.2625 53:0.2375 54:0.2375 55:0.1375 56:0.0375 57:0.125 58:0.1125 59:0.275 60:0.075 61:0.295 62:0.0679 63:0.3092 64:0.3165 65:0.2047 66:0.2827 67:0.1753 68:0.2025 69:0.0887 70:0.3174 71:0.4451 72:0.1601 73:0.2937 74:0.3267 75:0.2779 76:0.29 77:0.3119 78:0.3613 79:0.3249 80:0.4136 81:0.4425 82:0.3675 83:0.1652 84:0.2082 85:0.3239 86:0.3282 87:0.3869 88:0.2576 89:0.1861 90:0.2137 91:0.2806 92:0.1962 93:0.1634 94:0.1902 95:0.1132 96:0.1996 97:0.2185 98:0.2145 99:0.1338 100:0.297 101:0.1809 102:0.1968 103:0.0721 104:0.3481 105:0.1351 106:0.1733 107:0.2552 108:0.2244 109:0.3604 110:0.3774 111:0.303 112:0.2356 113:0.2378 114:0.2089 115:0.2426 116:0.2017 117:0.1316 118:0.1621 119:0.2021 120:0.0984 
4.753460604411969 1:0.1625 2:0.1625 3:0.2625 4:0.1 5:0.2375 6:0.0625 7:0.2125 8:0.4875 9:0.2875 10:0.2875 11:0.5 12:0.1875 13:0.2125 14:0.3 15:0.4125 16:0.2 17:0.55 18:0.4875 19:0.5875 20:0.175 21:0.2375 22:0.225 23:0.5 24:0.3 25:0.2125 26:0.2875 27:0.225 28:0.6375 29:0.15 30:0.2125 31:0.2625 32:0.0875 33:0.4375 34:0.4125 35:0.275 36:0.1375 37:0.2875 38:0.35 39:0.325 40:0.125 41:0.325 42:0.1875 43:0.1125 44:0.3 45:0.1875 46:0.275 47:0.325 48:0.375 49:0.2375 50:0.25 51:0.2375 52:0.2125 53:0.0625 54:0.175 55:0.0625 56:0.225 57:0.175 58:0.175 59:0.1125 60:0.1375 61:0.295 62:0.2101 63:0.3151 64:0.1382 65:0.2047 66:0.0865 67:0.2901 68:0.36 69:0.2165 70:0.246 71:0.4451 72:0.2623 73:0.2388 74:0.2422 75:0.2699 76:0.29 77:0.3508 78:0.3747 79:0.3517 80:0.1124 81:0.1555 82:0.3091 83:0.4033 84:0.3507 85:0.1964 86:0.1981 87:0.1634 88:0.1561 89:0.3106 90:0.2138 91:0.2243 92:0.0923 93:0.2313 94:0.1902 95:0.2208 96:0.1519 97:0.258 98:0.2361 99:0.1929 100:0.0724 101:0.3678 102:0.1438 103:0.2091 104:0.2209 105:0.2738 106:0.4172 107:0.3669 108:0.2752 109:0.2912 110:0.2182 111:0.21 112:0.2667 113:0.1839 114:0.1229 115:0.1317 116:0.1959 117:0.12 118:0.1959 119:0.171 120:0.1422 
8 1:0.15 2:0.1875 3:0.4375 4:0.1875 5:0.225 6:0.125 7:0.1375 8:0.3 9:0.15 10:0.475 11:0.225 12:0.1875 13:0.15 14:0.4125 15:0.4125 16:0.625 17:0.0625 18:0.2 19:0.5875 20:0.375 21:0.2875 22:0.6125 23:0.3 24:0.175 25:0.125 26:0.2375 27:0.1 28:0.275 29:0.15 30:0.2375 31:0.1875 32:0.175 33:0.0375 34:0.3375 35:0.2375 36:0.225 37:0.2375 38:0.175 39:0.1625 40:0.225 41:0.15 42:0.0875 43:0.275 44:0.15 45:0.1375 46:0.3125 47:0.2 48:0.2625 49:0.1 50:0.2375 51:0.075 52:0.25 53:0.05 54:0.225 55:0.275 56:0.275 57:0.0875 58:0.3375 59:0.2625 60:0.175 61:0.1766 62:0.193 63:0.3756 64:0.2239 65:0.3001 66:0.1596 67:0.1662 68:0.3072 69:0.2895 70:0.3845 71:0.266 72:0.2623 73:0.2415 74:0.214 75:0.2699 76:0.442 77:0.0522 78:0.2888 79:0.3517 80:0.2745 81:0.3042 82:0.3675 83:0.3072 84:0.2082 85:0.2461 86:0.2342 87:0.1992 88:0.2701 89:0.3106 90:0.293 91:0.2366 92:0.2262 93:0.0843 94:0.3817 95:0.1945 96:0.1848 97:0.2185 98:0.1624 99:0.3344 100:0.2565 101:0.1414 102:0.1047 103:0.2885 104:0.2371 105:0.0718 106:0.2739 107:0.2893 108:0.2473 109:0.1462 110:0.2579 111:0.0792 112:0.2885 113:0.0677 114:0.2967 115:0.3572 116:0.2957 117:0.155 118:0.3332 119:0.2992 120:0.2307 
8 1:0.2125 2:0.225 3:0.125 4:0.225 5:0.1625 6:0.275 7:0.2125 8:0.1375 9:0.175 10:0.3125 11:0.175 12:0.175 13:0.125 14:0.3625 15:0.25 16:0.125 17:0.125 18:0.2375 19:0.2625 20:0.275 21:0.1375 22:0.1875 23:0.2125 24:0.1 25:0.1 26:0.2 27:0.1125 28:0.2875 29:0.2375 30:0.0875 31:0.0875 32:0.15 33:0.125 34:0.1625 35:0.4875 36:0.3 37:0.225 38:0.1875 39:0.35 40:0.175 41:0.2375 42:0.325 43:0.2375 44:0.1625 45:0.2125 46:0.2125 47:0.2625 48:0.375 49:0.2375 50:0.2375 51:0.2375 52:0.1875 53:0.2375 54:0.1625 55:0.2875 56:0.1125 57:0.325 58:0.175 59:0.1875 60:0.2125 61:0.2446 62:0.1975 63:0.0895 64:0.3165 65:0.1669 66:0.2231 67:0.2901 68:0.1638 69:0.1697 70:0.3174 71:0.214 72:0.2643 73:0.2854 74:0.3005 75:0.3477 76:0.1158 77:0.1548 78:0.2003 79:0.2994 80:0.1627 81:0.1601 82:0.2105 83:0.089 84:0.0887 85:0.1888 86:0.2214 87:0.1397 88:0.2037 89:0.175 90:0.2114 91:0.0683 92:0.3193 93:0.2179 94:0.2444 95:0.3898 96:0.1579 97:0.1539 98:0.3024 99:0.2546 100:0.1752 101:0.2638 102:0.3807 103:0.299 104:0.1667 105:0.2295 106:0.2279 107:0.2948 108:0.2752 109:0.2804 110:0.2579 111:0.2766 112:0.2872 113:0.2378 114:0.2353 115:0.2541 116:0.2441 117:0.3391 118:0.1532 119:0.2728 120:0.2971 
0.05674590223173869 1:0.125 2:0.225 3:0.2375 4:0.175 5:0.1375 6:0.3375 7:0.2125 8:0.2 9:0.1 10:0.1875 11:0.2375 12:0.375 13:0.35 14:0.175 15:0.325 16:0.075 17:0.15 18:0.125 19:0.3125 20:0.0625 21:0.275 22:0.2875 23:0.1625 24:0.275 25:0.1 26:0.375 27:0.1 28:0.1625 29:0.725 30:0.8625 31:0.325 32:0.4 33:0.2 34:0.1125 35:0.4875 36:0.1625 37:0.15 38:0.2 39:0.2375 40:0.1625 41:0.325 42:0.2 43:0.2375 44:0.3125 45:0.275 46:0.3125 47:0.1625 48:0.3 49:0.2375 50:0.275 51:0.1375 52:0.25 53:0.2 54:0.1875 55:0.2 56:0.9625 57:0.975 58:0.975 59:0.975 60:1 61:0.1644 62:0.1975 63:0.3392 64:0.2291 65:0.2601 66:0.3321 67:0.2901 68:0.2488 69:0.1272 70:0.1931 71:0.2399 72:0.2684 73:0.2342 74:0.1388 75:0.2122 76:0.0771 77:0.071 78:0.2008 79:0.2403 80:0.1881 81:0.1934 82:0.1762 83:0.1887 84:0.1437 85:0.105 86:0.2487 87:0.27 88:0.327 89:0.4712 90:0.1343 91:0.3008 92:0.1868 93:0.2025 94:0.2246 95:0.3898 96:0.3065 97:0.2015 98:0.1509 99:0.2268 100:0.297 101:0.3678 102:0.2552 103:0.2809 104:0.274 105:0.2601 106:0.2056 107:0.2493 108:0.2515 109:0.2804 110:0.2959 111:0.1572 112:0.2885 113:0.3078 114:0.2759 115:0.2831 116:0.2083 117:0.2129 118:0.2197 119:0.2197 120:0.2318 
8 1:0.125 2:0.175 3:0.1625 4:0.15 5:0.175 6:0.1625 7:0.1125 8:0.1875 9:0.1125 10:0.2875 11:0.2375 12:0.0875 13:0.2875 14:0.075 15:0.125 16:0.4 17:0.2875 18:0.1625 19:0.05 20:0.225 21:0.1625 22:0.05 23:0.5 24:0.2375 25:0.1375 26:0.3125 27:0.2375 28:0.175 29:0.2 30:0.125 31:0.6625 32:0.2375 33:0.25 34:0.4625 35:0.0875 36:0.1625 37:0.2 38:0.4 39:0.275 40:0.1875 41:0.2375 42:0.175 43:0.425 44:0.3 45:0.3125 46:0.275 47:0.25 48:0.1125 49:0.225 50:0.3 51:0.2125 52:0.3125 53:0.1375 54:0.225 55:0.2375 56:0.35 57:0.2625 58:0.175 59:0.1875 60:0.35 61:0.1644 62:0.2194 63:0.2403 64:0.2725 65:0.2269 66:0.1342 67:0.098 68:0.2025 69:0.1624 70:0.246 71:0.2399 72:0.1406 73:0.2937 74:0.2196 75:0.2111 76:0.2311 77:0.198 78:0.2753 79:0.0862 80:0.2244 81:0.0959 82:0.1148 83:0.4033 84:0.182 85:0.2647 86:0.3467 87:0.2132 88:0.171 89:0.2262 90:0.2088 91:0.3457 92:0.3885 93:0.3278 94:0.4045 95:0.057 96:0.2727 97:0.2399 98:0.1935 99:0.3257 100:0.291 101:0.2638 102:0.3397 103:0.2981 104:0.4304 105:0.3286 106:0.4172 107:0.1822 108:0.163 109:0.3572 110:0.3774 111:0.2221 112:0.3146 113:0.2823 114:0.2646 115:0.2347 116:0.3482 117:0.2172 118:0.1959 119:0.2728 120:0.3758 
8 1:0.15 2:0.175 3:0.1875 4:0.325 5:0.1 6:0.1625 7:0.2 8:0.375 9:0.175 10:0.0875 11:0.0875 12:0.6625 13:0.525 14:0.3625 15:0.2 16:0.2375 17:0.2375 18:0.2 19:0.2375 20:0.225 21:0.1625 22:0.1375 23:0.1625 24:0.75 25:0.2125 26:0.3125 27:0.0375 28:0.1375 29:0.2625 30:0.2375 31:0.6625 32:0.4 33:0.4125 34:0.1625 35:0.15 36:0.4 37:0.3875 38:0.2 39:0.275 40:0.25 41:0.2 42:0.125 43:0.2375 44:0.125 45:0.3375 46:0.3125 47:0.3 48:0.2625 49:0.375 50:0.25 51:0.275 52:0.3125 53:0.2375 54:0.2625 55:0.2375 56:0.275 57:0.175 58:0.15 59:0.125 60:0.1625 61:0.1766 62:0.2844 63:0.2929 64:0.3087 65:0.097 66:0.2827 67:0.2498 68:0.2136 69:0.1697 70:0.1838 71:0.0734 72:0.4481 73:0.3307 74:0.3005 75:0.2843 76:0.3103 77:0.3524 78:0.2322 79:0.1147 80:0.2244 81:0.0959 82:0.0932 83:0.1887 84:0.3441 85:0.1579 86:0.3467 87:0.2096 88:0.2326 89:0.1861 90:0.293 91:0.3457 92:0.1868 93:0.3697 94:0.2755 95:0.1871 96:0.3654 97:0.4041 98:0.1783 99:0.3257 100:0.3087 101:0.2762 102:0.1277 103:0.2809 104:0.1584 105:0.4035 106:0.3 107:0.3577 108:0.2324 109:0.3604 110:0.2182 111:0.303 112:0.3146 113:0.1917 114:0.2355 115:0.2165 116:0.1796 117:0.12 118:0.1802 119:0.1 120:0.235 
3.554239579468363 1:0.45 2:0.1 3:0.2125 4:0.3875 5:0.15 6:0.3 7:0.2875 8:0.3375 9:0.0875 10:0.2 11:0.5 12:0.6625 13:0.0625 14:0.3 15:0.25 16:0.625 17:0.55 18:0.3625 19:0.2375 20:0.275 21:0.1625 22:0.0625 23:0.3 24:0.275 25:0.2125 26:0.2375 27:0.3875 28:0.1 29:0.2 30:0.2125 31:0.1 32:0.1625 33:0.6375 34:0.1625 35:0.25 36:0.3 37:0.3375 38:0.3625 39:0.425 40:0.5 41:0.525 42:0.575 43:0.6 44:0.625 45:0.6625 46:0.7125 47:0.75 48:0.7625 49:0.7875 50:0.8125 51:0.825 52:0.8375 53:0.875 54:0.9 55:0.925 56:0.9625 57:0.975 58:0.975 59:0.975 60:1 61:0.4019 62:0.0679 63:0.1644 64:0.299 65:0.1425 66:0.3073 67:0.1954 68:0.3168 69:0.1921 70:0.1645 71:0.4451 72:0.4481 73:0.1903 74:0.2422 75:0.3477 76:0.442 77:0.3508 78:0.274 79:0.1147 80:0.1627 81:0.0959 82:0.0708 83:0.3072 84:0.1437 85:0.1579 86:0.2342 87:0.3869 88:0.1715 89:0.2262 90:0.2138 91:0.1622 92:0.2032 93:0.1634 94:0.2755 95:0.055 96:0.0575 97:0.06 98:0.0626 99:0.0696 100:0.0718 101:0.0885 102:0.0981 103:0.0981 104:0.1146 105:0.1219 106:0.1268 107:0.1293 108:0.1462 109:0.1576 110:0.1622 111:0.1663 112:0.1731 113:0.1873 114:0.197 115:0.1991 116:0.2083 117:0.2129 118:0.2197 119:0.2197 120:0.2318 
8 1:0.2375 2:0.225 3:0.2375 4:0.2 5:0.3625 6:0.1 7:0.1375 8:0.4875 9:0.575 10:0.075 11:0.2125 12:0.375 13:0.525 14:0.55 15:0.325 16:0.175 17:0.275 18:0.075 19:0.05 20:0.35 21:0.225 22:0.1125 23:0.275 24:0.3 25:0.1 26:0.2125 27:0.175 28:0.6375 29:0.1125 30:0.125 31:0.2875 32:0.075 33:0.0875 34:0.1625 35:0.25 36:0.3 37:0.3375 38:0.3625 39:0.425 40:0.5 41:0.525 42:0.575 43:0.6 44:0.625 45:0.6625 46:0.7125 47:0.75 48:0.7625 49:0.7875 50:0.8125 51:0.825 52:0.8375 53:0.875 54:0.9 55:0.925 56:0.9625 57:0.975 58:0.975 59:0.975 60:1 61:0.3024 62:0.1975 63:0.3392 64:0.2066 65:0.3195 66:0.126 67:0.1662 68:0.36 69:0.4114 70:0.1183 71:0.2554 72:0.2684 73:0.3307 74:0.3267 75:0.2779 76:0.1918 77:0.1911 78:0.088 79:0.0862 80:0.344 81:0.15 82:0.1453 83:0.1719 84:0.3507 85:0.1888 86:0.1599 87:0.2157 88:0.1561 89:0.1612 90:0.2088 91:0.1514 92:0.0211 93:0.0235 94:0.0454 95:0.055 96:0.0575 97:0.06 98:0.0626 99:0.0696 100:0.0718 101:0.0885 102:0.0981 103:0.0981 104:0.1146 105:0.1219 106:0.1268 107:0.1293 108:0.1462 109:0.1576 110:0.1622 111:0.1663 112:0.1731 113:0.1873 114:0.197 115:0.1991 116:0.2083 117:0.2129 118:0.2197 119:0.2197 120:0.2318 
8 1:0.3 2:0.3375 3:0.225 4:0.1875 5:0.225 6:0.125 7:0.1875 8:0.3375 9:0.1 10:0.175 11:0.5 12:0.175 13:0.525 14:0.05 15:0.325 16:0.0875 17:0.125 18:0.2625 19:0.3125 20:0.275 21:0.15 22:0.225 23:0.275 24:0.3875 25:0.5625 26:0.125 27:0.3875 28:0.05 29:0.725 30:0.3 31:0.0875 32:0.175 33:0.325 34:0.1125 35:0.2375 36:0.275 37:0.375 38:0.1375 39:0.35 40:0.25 41:0.2 42:0.275 43:0.425 44:0.15 45:0.2125 46:0.175 47:0.325 48:0.15 49:0.375 50:0.275 51:0.2625 52:0.2125 53:0.375 54:0.2625 55:0.1375 56:0.35 57:0.2125 58:0.0875 59:0.025 60:0.3625 61:0.2335 62:0.2884 63:0.2685 64:0.2239 65:0.3001 66:0.2057 67:0.2634 68:0.3168 69:0.1272 70:0.253 71:0.4451 72:0.2643 73:0.3307 74:0.1999 75:0.2122 76:0.1404 77:0.1548 78:0.2099 79:0.2403 80:0.1627 81:0.2944 82:0.236 83:0.2518 84:0.277 85:0.3653 86:0.0817 87:0.3869 88:0.0925 89:0.4712 90:0.3321 91:0.1589 92:0.2913 93:0.2234 94:0.2129 95:0.225 96:0.1996 97:0.1924 98:0.2187 99:0.2546 100:0.3087 101:0.2762 102:0.1814 103:0.2981 104:0.2371 105:0.2073 106:0.1973 107:0.3669 108:0.1375 109:0.2546 110:0.2376 111:0.2933 112:0.2156 113:0.289 114:0.2355 115:0.2095 116:0.3482 117:0.3092 118:0.0926 119:0.0682 120:0.3109 
8 1:0.2125 2:0.275 3:0.1375 4:0.3875 5:0.1875 6:0.1625 7:0.15 8:0.4875 9:0.575 10:0.2375 11:0.125 12:0.1125 13:0.2875 14:0.125 15:0.325 16:0.2375 17:0.275 18:0.15 19:0.0875 20:0.2125 21:0.1375 22:0.1 23:0.0375 24:0.2 25:0.1 26:0.15 27:0.225 28:0.1625 29:0.725 30:0.3 31:0.0875 32:0.2875 33:0.4125 34:0.4625 35:0.275 36:0.0375 37:0.375 38:0.175 39:0.4 40:0.1375 41:0.325 42:0.2125 43:0.1125 44:0.3 45:0.1625 46:0.3125 47:0.0625 48:0.2 49:0.2375 50:0.25 51:0.3125 52:0.25 53:0.1125 54:0.175 55:0.2375 56:0.15 57:0.325 58:0.2375 59:0.175 60:0.35 61:0.2148 62:0.2678 63:0.1248 64:0.299 65:0.2564 66:0.2827 67:0.2052 68:0.36 69:0.4114 70:0.333 71:0.1075 72:0.1792 73:0.2937 74:0.1891 75:0.2779 76:0.3103 77:0.2981 78:0.1877 79:0.2615 80:0.315 81:0.1601 82:0.1733 83:0.1079 84:0.1973 85:0.1888 86:0.2985 87:0.1634 88:0.327 89:0.4712 90:0.3321 91:0.1589 92:0.2473 93:0.3697 94:0.4045 95:0.2208 96:0.07 97:0.1924 98:0.1624 99:0.4367 100:0.197 101:0.3678 102:0.1972 103:0.2091 104:0.2209 105:0.1424 106:0.3 107:0.0846 108:0.3298 109:0.2912 110:0.2182 111:0.4125 112:0.3042 113:0.1423 114:0.1953 115:0.2347 116:0.262 117:0.3391 118:0.2207 119:0.2494 120:0.3758 
8 1:0.2125 2:0.175 3:0.125 4:0.0375 5:0.375 6:0.125 7:0.1875 8:0.175 9:0.1875 10:0.2875 11:0.175 12:0.2875 13:0.1375 14:0.3 15:0.0625 16:0.175 17:0.1375 18:0.3625 19:0.2375 20:0.225 21:0.275 22:0.075 23:0.3 24:0.2 25:0.225 26:0.15 27:0.1 28:0.2625 29:0.725 30:0.3 31:0.15 32:0.375 33:0.1 34:0.1125 35:0.2375 36:0.2375 37:0.3 38:0.325 39:0.4 40:0.175 41:0.225 42:0.2125 43:0.425 44:0.0875 45:0.3375 46:0.175 47:0.125 48:0.2125 49:0.2125 50:0.275 51:0.075 52:0.3125 53:0.0875 54:0.25 55:0.1375 56:0.2625 57:0.125 58:0.15 59:0.225 60:0.1125 61:0.2148 62:0.2194 63:0.1189 64:0.0878 65:0.4415 66:0.1596 67:0.2766 68:0.2279 69:0.2268 70:0.246 71:0.214 72:0.1601 73:0.193 74:0.2922 75:0.164 76:0.1918 77:0.223 78:0.3291 79:0.3165 80:0.3412 81:0.1934 82:0.1593 83:0.3072 84:0.1973 85:0.3239 86:0.2985 87:0.1992 88:0.2367 89:0.4712 90:0.3321 91:0.1839 92:0.1962 93:0.1762 94:0.2246 95:0.1945 96:0.2475 97:0.3049 98:0.2145 99:0.4367 100:0.1752 101:0.2696 102:0.2522 103:0.2981 104:0.1295 105:0.4035 106:0.1973 107:0.1764 108:0.1381 109:0.2882 110:0.2959 111:0.1153 112:0.3146 113:0.1599 114:0.2376 115:0.2426 116:0.1514 117:0.1316 118:0.1802 119:0.2601 120:0.2694 
8 1:0.3 2:0.1875 3:0.1375 4:0.175 5:0.1625 6:0.2375 7:0.35 8:0.2 9:0.2875 10:0.0375 11:0.175 12:0.3625 13:0.175 14:0.55 15:0.125 16:0.2875 17:0.275 18:0.0875 19:0.0375 20:0.2375 21:0.2375 22:0.2625 23:0.175 24:0.25 25:0.2875 26:0.15 27:0.1 28:0.1 29:0.725 30:0.1375 31:0.2375 32:0.45 33:0.3375 34:0.1875 35:0.4875 36:0.275 37:0.1 38:0.35 39:0.4 40:0.175 41:0.25 42:0.2125 43:0.1875 44:0.2125 45:0.3375 46:0.3125 47:0.2375 48:0.2625 49:0.2125 50:0.0875 51:0.2375 52:0.3125 53:0.1375 54:0.1625 55:0.15 56:0.1875 57:0.2625 58:0.1375 59:0.2125 60:0.3 61:0.2398 62:0.2638 63:0.1248 64:0.2291 65:0.1669 66:0.1832 67:0.3009 68:0.3124 69:0.3456 70:0.0813 71:0.214 72:0.2778 73:0.2796 74:0.3267 75:0.2111 76:0.202 77:0.2981 78:0.1673 79:0.2145 80:0.2784 81:0.1555 82:0.3628 83:0.2981 84:0.2969 85:0.3325 86:0.2985 87:0.27 88:0.1715 89:0.4712 90:0.2189 91:0.3792 92:0.398 93:0.4092 94:0.2713 95:0.3898 96:0.2914 97:0.1662 98:0.2361 99:0.4367 100:0.1752 101:0.3089 102:0.2522 103:0.3764 104:0.2064 105:0.4035 106:0.3 107:0.2115 108:0.2473 109:0.2882 110:0.0657 111:0.21 112:0.3146 113:0.2823 114:0.2353 115:0.207 116:0.2525 117:0.2172 118:0.2061 119:0.2291 120:0.24 
8 1:0.3 2:0.2125 3:0.1875 4:0.325 5:0.225 6:0.1875 7:0.1875 8:0.125 9:0.1125 10:0.0875 11:0.2125 12:0.1375 13:0.35 14:0.0875 15:0.525 16:0.4 17:0.125 18:0.3625 19:0.2375 20:0.575 21:0.3 22:0.6125 23:0.175 24:0.0625 25:0.075 26:0.075 27:0.4875 28:0.1625 29:0.25 30:0.55 31:0.6625 32:0.15 33:0.4125 34:0.0875 35:0.125 36:0.275 37:0.3875 38:0.325 39:0.2125 40:0.3375 41:0.2875 42:0.325 43:0.1125 44:0.3125 45:0.2125 46:0.175 47:0.225 48:0.2 49:0.2375 50:0.3 51:0.3125 52:0.25 53:0.1625 54:0.1625 55:0.1375 56:0.0625 57:0.1875 58:0.3375 59:0.125 60:0.2375 61:0.2335 62:0.2668 63:0.2929 64:0.3087 65:0.3001 66:0.2794 67:0.2108 68:0.1815 69:0.1989 70:0.1838 71:0.2205 72:0.2922 73:0.2342 74:0.2058 75:0.3548 76:0.2311 77:0.1548 78:0.274 79:0.3165 80:0.4136 81:0.348 82:0.3675 83:0.2131 84:0.1284 85:0.2897 86:0.2137 87:0.3532 88:0.2191 89:0.2977 90:0.4234 91:0.3457 92:0.164 93:0.3697 94:0.1504 95:0.1132 96:0.1996 97:0.4041 98:0.2145 99:0.1916 100:0.3922 101:0.325 102:0.3807 103:0.2091 104:0.274 105:0.2654 106:0.1973 107:0.213 108:0.3298 109:0.2912 110:0.3774 111:0.4125 112:0.3042 113:0.1812 114:0.2233 115:0.3174 116:0.0691 117:0.2209 118:0.3332 119:0.3853 120:0.2088 
8 1:0.45 2:0.175 3:0.25 4:0.3875 5:0.3 6:0.1625 7:0.35 8:0.4875 9:0.575 10:0.1875 11:0.3375 12:0.175 13:0.4 14:0.4125 15:0.4125 16:0.4 17:0.2875 18:0.15 19:0.2375 20:0.2125 21:0.1375 22:0.2875 23:0.275 24:0.175 25:0.125 26:0.375 27:0.275 28:0.175 29:0.3375 30:0.275 31:0.2625 32:0.2375 33:0.1875 34:0.4125 35:0.125 36:0.1375 37:0.125 38:0.325 39:0.325 40:0.175 41:0.1875 42:0.1875 43:0.2375 44:0.3 45:0.2 46:0.175 47:0.225 48:0.3875 49:0.375 50:0.8125 51:0.825 52:0.8375 53:0.875 54:0.9 55:0.925 56:0.9625 57:0.975 58:0.975 59:0.975 60:1 61:0.4019 62:0.2194 63:0.1922 64:0.299 65:0.2962 66:0.2827 67:0.3009 68:0.36 69:0.4114 70:0.1931 71:0.275 72:0.2643 73:0.3108 74:0.214 75:0.2699 76:0.2311 77:0.2955 78:0.1877 79:0.3249 80:0.315 81:0.2034 82:0.1762 83:0.2518 84:0.2082 85:0.2461 86:0.2487 87:0.3796 88:0.171 89:0.3081 90:0.2664 91:0.2243 92:0.3885 93:0.169 94:0.1902 95:0.1132 96:0.1833 97:0.2728 98:0.2145 99:0.1929 100:0.2345 101:0.2239 102:0.1438 103:0.299 104:0.4304 105:0.2485 106:0.1973 107:0.213 108:0.4295 109:0.3604 110:0.1622 111:0.1663 112:0.1731 113:0.1873 114:0.197 115:0.1991 116:0.2083 117:0.2129 118:0.2197 119:0.2197 120:0.2318 
6.16362634477253 1:0.725 2:0.7 3:0.6625 4:0.65 5:0.65 6:0.625 7:0.625 8:0.6125 9:0.6125 10:0.6125 11:0.6125 12:0.6 13:0.5875 14:0.575 15:0.5625 16:0.5625 17:0.5375 18:0.525 19:0.5 20:0.475 21:0.4125 22:0.3625 23:0.3125 24:0.3125 25:0.2625 26:0.2375 27:0.175 28:0.1125 29:0.1625 30:0.325 31:0.15 32:0.5125 33:0.4125 34:0.3375 35:0.2375 36:0.175 37:0.2625 38:0.2 39:0.2125 40:0.05 41:0.0875 42:0.2125 43:0.125 44:0.15 45:0.2125 46:0.1625 47:0.125 48:0.3 49:0.1625 50:0.0625 51:0.1 52:0.1 53:0.2625 54:0.15 55:0.175 56:0.225 57:0.275 58:0.1625 59:0.2875 60:0.2375 61:0.1924 62:0.1849 63:0.1781 64:0.1692 65:0.1625 66:0.1604 67:0.1506 68:0.1434 69:0.1362 70:0.1339 71:0.1293 72:0.122 73:0.1077 74:0.1055 75:0.091 76:0.0866 77:0.0866 78:0.0817 79:0.0769 80:0.0674 81:0.058 82:0.0534 83:0.0463 84:0.0424 85:0.0331 86:0.0264 87:0.0122 88:0.0099 89:0.0906 90:0.2667 91:0.2806 92:0.1619 93:0.3697 94:0.3817 95:0.1945 96:0.283 97:0.2463 98:0.1509 99:0.1916 100:0.0685 101:0.0848 102:0.2522 103:0.1489 104:0.2371 105:0.2295 106:0.2723 107:0.1808 108:0.2515 109:0.1547 110:0.1427 111:0.0942 112:0.1293 113:0.2051 114:0.2175 115:0.2317 116:0.1959 117:0.4116 118:0.1932 119:0.2699 120:0.2088 
8 1:0.725 2:0.7 3:0.6625 4:0.65 5:0.65 6:0.625 7:0.625 8:0.6125 9:0.6125 10:0.6125 11:0.6125 12:0.6 13:0.5875 14:0.575 15:0.5625 16:0.5625 17:0.5375 18:0.525 19:0.5 20:0.475 21:0.4125 22:0.3625 23:0.3125 24:0.3125 25:0.2625 26:0.2375 27:0.15 28:0.2625 29:0.4875 30:0.2375 31:0.2375 32:0.3 33:0.2 34:0.1125 35:0.2375 36:0.15 37:0.15 38:0.025 39:0.0875 40:0.225 41:0.15 42:0.275 43:0.175 44:0.3125 45:0.125 46:0.2125 47:0.125 48:0.0875 49:0.1 50:0.1375 51:0.2125 52:0.2 53:0.225 54:0.1875 55:0.275 56:0.275 57:0.325 58:0.2375 59:0.1625 60:0.3625 61:0.1924 62:0.1849 63:0.1781 64:0.1692 65:0.1625 66:0.1604 67:0.1506 68:0.1434 69:0.1362 70:0.1339 71:0.1293 72:0.122 73:0.1077 74:0.1055 75:0.091 76:0.0866 77:0.0866 78:0.0817 79:0.0769 80:0.0674 81:0.058 82:0.0534 83:0.0463 84:0.0424 85:0.0331 86:0.0264 87:0.1028 88:0.2367 89:0.1651 90:0.293 91:0.3792 92:0.3206 93:0.2025 94:0.2246 95:0.225 96:0.1648 97:0.2015 98:0.072 99:0.1002 100:0.2565 101:0.1414 102:0.1814 103:0.2358 104:0.274 105:0.1874 106:0.2279 107:0.205 108:0.183 109:0.0928 110:0.129 111:0.2232 112:0.1847 113:0.2744 114:0.2759 115:0.3572 116:0.1796 117:0.3391 118:0.2207 119:0.2314 120:0.3109 
8 1:0.175 2:0.15 3:0.4375 4:0.1 5:0.0375 6:0.3875 7:0.15 8:0.1375 9:0.1875 10:0.1375 11:0.275 12:0.1125 13:0.0875 14:0.0875 15:0.0625 16:0.625 17:0.1375 18:0.2625 19:0.2375 20:0.225 21:0.15 22:0.125 23:0.2 24:0.0875 25:0.1625 26:0.5875 27:0.4875 28:0.175 29:0.2375 30:0.55 31:0.2375 32:0.2875 33:0.1375 34:0.4125 35:0.4875 36:0.4 37:0.3875 38:0.3 39:0.275 40:0.3375 41:0.225 42:0.325 43:0.425 44:0.3 45:0.3375 46:0.275 47:0.325 48:0.2 49:0.225 50:0.175 51:0.0625 52:0.25 53:0.2 54:0.25 55:0.3625 56:0.125 57:0.15 58:0.2375 59:0.15 60:0.35 61:0.1705 62:0.1662 63:0.3756 64:0.1382 65:0.0957 66:0.3846 67:0.2052 68:0.173 69:0.2268 70:0.2453 71:0.3453 72:0.1629 73:0.0871 74:0.0936 75:0.164 76:0.442 77:0.223 78:0.2099 79:0.3249 80:0.2185 81:0.2231 82:0.2407 83:0.2323 84:0.1375 85:0.2007 86:0.3282 87:0.3532 88:0.171 89:0.175 90:0.4234 91:0.3792 92:0.2473 93:0.3183 94:0.1902 95:0.3898 96:0.3654 97:0.4041 98:0.3418 99:0.3257 100:0.3922 101:0.2696 102:0.3807 103:0.2981 104:0.4304 105:0.4035 106:0.4172 107:0.3669 108:0.3298 109:0.3572 110:0.2874 111:0.1201 112:0.2885 113:0.2069 114:0.2376 115:0.2936 116:0.1647 117:0.1573 118:0.299 119:0.1432 120:0.3758 
8 1:0.1625 2:0.175 3:0.075 4:0.375 5:0.2375 6:0.275 7:0.1875 8:0.1875 9:0.2375 10:0.1875 11:0.2375 12:0.2375 13:0.525 14:0.075 15:0.325 16:0.2125 17:0.1625 18:0.2375 19:0.425 20:0.0625 21:0.15 22:0.6125 23:0.3 24:0.0875 25:0.35 26:0.5875 27:0.5375 28:0.1875 29:0.1625 30:0.2375 31:0.1 32:0.3 33:0.3375 34:0.4625 35:0.2 36:0.4 37:0.3125 38:0.175 39:0.2125 40:0.175 41:0.2875 42:0.325 43:0.1875 44:0.3125 45:0.2625 46:0.2625 47:0.125 48:0.2 49:0.2375 50:0.2625 51:0.275 52:0.1625 53:0.375 54:0.2625 55:0.1375 56:0.1125 57:0.2 58:0.2125 59:0.2625 60:0.1375 61:0.295 62:0.2263 63:0.2102 64:0.3544 65:0.1584 66:0.2231 67:0.2108 68:0.2059 69:0.2514 70:0.1931 71:0.2399 72:0.1865 73:0.3307 74:0.2196 75:0.2779 76:0.2529 77:0.2461 78:0.2003 79:0.3245 80:0.1881 81:0.2231 82:0.3675 83:0.3072 84:0.1375 85:0.2344 86:0.3282 87:0.1299 88:0.3091 89:0.0906 90:0.293 91:0.1992 92:0.3206 93:0.4092 94:0.4045 95:0.2923 96:0.3654 97:0.302 98:0.1624 99:0.1185 100:0.2345 101:0.325 102:0.3807 103:0.3764 104:0.274 105:0.2448 106:0.1733 107:0.1808 108:0.3298 109:0.2804 110:0.242 111:0.303 112:0.1419 113:0.289 114:0.2355 115:0.3174 116:0.0901 117:0.3413 118:0.2473 119:0.2992 120:0.1422 
6.696897436188717 1:0.45 2:0.1875 3:0.0875 4:0.2 5:0.225 6:0.1625 7:0.1875 8:0.1375 9:0.3125 10:0.1875 11:0.15 12:0.1125 13:0.2 14:0.55 15:0.325 16:0.125 17:0.0625 18:0.2 19:0.2375 20:0.225 21:0.1375 22:0.3375 23:0.275 24:0.175 25:0.2875 26:0.2875 27:0.1125 28:0.1375 29:0.725 30:0.55 31:0.6625 32:0.375 33:0.4375 34:0.3375 35:0.325 36:0.4 37:0.375 38:0.25 39:0.1125 40:0.25 41:0.15 42:0.25 43:0.2 44:0.3375 45:0.275 46:0.1625 47:0.2375 48:0.2125 49:0.2375 50:0.2625 51:0.1875 52:0.1625 53:0.375 54:0.25 55:0.1 56:0.1125 57:0.2125 58:0.275 59:0.15 60:0.3 61:0.4019 62:0.193 63:0.0626 64:0.2066 65:0.3001 66:0.1342 67:0.2766 68:0.173 69:0.3477 70:0.2976 71:0.1562 72:0.1792 73:0.2602 74:0.3267 75:0.2122 76:0.1158 77:0.2028 78:0.2322 79:0.3165 80:0.2185 81:0.2034 82:0.1878 83:0.1719 84:0.2082 85:0.3325 86:0.1981 87:0.1397 88:0.2326 89:0.4712 90:0.4234 91:0.3457 92:0.1962 93:0.2313 94:0.3817 95:0.2917 96:0.3654 97:0.1924 98:0.2746 99:0.1739 100:0.3087 101:0.1414 102:0.2478 103:0.1391 104:0.3481 105:0.2601 106:0.1623 107:0.2115 108:0.1381 109:0.2804 110:0.242 111:0.2249 112:0.1419 113:0.289 114:0.2376 115:0.1383 116:0.0901 117:0.3056 118:0.2317 119:0.1432 120:0.24 
8 1:0.725 2:0.7 3:0.6625 4:0.65 5:0.65 6:0.625 7:0.625 8:0.6125 9:0.6125 10:0.6125 11:0.6125 12:0.6 13:0.5875 14:0.575 15:0.5625 16:0.5625 17:0.5375 18:0.525 19:0.5 20:0.475 21:0.4125 22:0.3625 23:0.2125 24:0.3875 25:0.2375 26:0.5875 27:0.4875 28:0.2625 29:0.2 30:0.125 31:0.325 32:0.1625 33:0.2625 34:0.225 35:0.275 36:0.175 37:0.2625 38:0.35 39:0.125 40:0.0625 41:0.25 42:0.1125 43:0.1125 44:0.175 45:0.3125 46:0.3 47:0.2 48:0.1625 49:0.1375 50:0.275 51:0.1875 52:0.2375 53:0.2375 54:0.1875 55:0.2 56:0.35 57:0.125 58:0.275 59:0.2625 60:0.35 61:0.1924 62:0.1849 63:0.1781 64:0.1692 65:0.1625 66:0.1604 67:0.1506 68:0.1434 69:0.1362 70:0.1339 71:0.1293 72:0.122 73:0.1077 74:0.1055 75:0.091 76:0.0866 77:0.0866 78:0.0817 79:0.0769 80:0.0674 81:0.058 82:0.0534 83:0.089 84:0.277 85:0.3125 86:0.3282 87:0.3532 88:0.2367 89:0.299 90:0.2088 91:0.3008 92:0.0627 93:0.3167 94:0.2732 95:0.2208 96:0.283 97:0.2463 98:0.2361 99:0.1338 100:0.1002 101:0.1809 102:0.0737 103:0.2091 104:0.2044 105:0.3286 106:0.2654 107:0.2893 108:0.2059 109:0.2455 110:0.2959 111:0.2249 112:0.3076 113:0.1917 114:0.2759 115:0.2557 116:0.3482 117:0.1316 118:0.2317 119:0.2992 120:0.3758 
8 1:0.125 2:0.2125 3:0.125 4:0.375 5:0.1875 6:0.175 7:0.2125 8:0.2 9:0.1125 10:0.1875 11:0.125 12:0.1 13:0.15 14:0.125 15:0.125 16:0.625 17:0.1625 18:0.2375 19:0.2375 20:0.225 21:0.15 22:0.2625 23:0.3 24:0.1625 25:0.35 26:0.2 27:0.3 28:0.2625 29:0.3375 30:0.325 31:0.1625 32:0.5125 33:0.25 34:0.4625 35:0.4875 36:0.3 37:0.3375 38:0.3625 39:0.425 40:0.5 41:0.525 42:0.575 43:0.6 44:0.625 45:0.6625 46:0.7125 47:0.75 48:0.7625 49:0.7875 50:0.8125 51:0.825 52:0.8375 53:0.875 54:0.9 55:0.925 56:0.9625 57:0.975 58:0.975 59:0.975 60:1 61:0.1644 62:0.2668 63:0.1189 64:0.3544 65:0.2564 66:0.2212 67:0.2901 68:0.2488 69:0.1989 70:0.2312 71:0.1075 72:0.1869 73:0.2415 74:0.1891 75:0.2265 76:0.442 77:0.2461 78:0.2003 79:0.3165 80:0.2185 81:0.2231 82:0.3628 83:0.3072 84:0.2833 85:0.2344 86:0.2214 87:0.221 88:0.2367 89:0.3081 90:0.2667 91:0.2232 92:0.1619 93:0.3278 94:0.4045 95:0.3898 96:0.0575 97:0.06 98:0.0626 99:0.0696 100:0.0718 101:0.0885 102:0.0981 103:0.0981 104:0.1146 105:0.1219 106:0.1268 107:0.1293 108:0.1462 109:0.1576 110:0.1622 111:0.1663 112:0.1731 113:0.1873 114:0.197 115:0.1991 116:0.2083 117:0.2129 118:0.2197 119:0.2197 120:0.2318 
7.114253942231332 1:0.725 2:0.7 3:0.6625 4:0.05 5:0.2 6:0.1625 7:0.175 8:0.3375 9:0.1625 10:0.1375 11:0.2125 12:0.6625 13:0.1375 14:0.2125 15:0.1875 16:0.2125 17:0.1625 18:0.1 19:0.075 20:0.225 21:0.3 22:0.2 23:0.2 24:0.2625 25:0.225 26:0.2375 27:0.225 28:0.2625 29:0.2 30:0.3125 31:0.8875 32:0.175 33:0.25 34:0.075 35:0.4875 36:0.4 37:0.2375 38:0.3 39:0.4 40:0.175 41:0.2 42:0.2125 43:0.2875 44:0.3125 45:0.2625 46:0.1625 47:0.325 48:0.125 49:0.225 50:0.175 51:0.2375 52:0.2 53:0.225 54:0.25 55:0.2 56:0.35 57:0.275 58:0.0625 59:0.175 60:0.35 61:0.1924 62:0.1849 63:0.1781 64:0.0759 65:0.1621 66:0.2827 67:0.3119 68:0.3168 69:0.1872 70:0.2453 71:0.2554 72:0.4481 73:0.0834 74:0.2707 75:0.345 76:0.2529 77:0.2461 78:0.1857 79:0.1063 80:0.3412 81:0.348 82:0.3034 83:0.2323 84:0.2264 85:0.3239 86:0.2342 87:0.1634 88:0.2367 89:0.2262 90:0.2271 91:0.1403 92:0.2262 93:0.3278 94:0.108 95:0.3898 96:0.1932 97:0.2185 98:0.3418 99:0.4367 100:0.2345 101:0.2762 102:0.3222 103:0.262 104:0.274 105:0.2448 106:0.2723 107:0.3669 108:0.2243 109:0.3572 110:0.2874 111:0.2766 112:0.1847 113:0.2744 114:0.2376 115:0.2831 116:0.3482 117:0.4116 118:0.0713 119:0.2494 120:0.3758 
8 1:0.725 2:0.7 3:0.125 4:0.1875 5:0.1875 6:0.175 7:0.35 8:0.175 9:0.1875 10:0.2875 11:0.5 12:0.1 13:0.15 14:0.1625 15:0.15 16:0.2125 17:0.0875 18:0.125 19:0.2375 20:0.35 21:0.3 22:0.125 23:0.275 24:0.3 25:0.35 26:0.2875 27:0.3875 28:0.275 29:0.2125 30:0.8625 31:0.1625 32:0.15 33:0.025 34:0.4625 35:0.4375 36:0.275 37:0.3875 38:0.3 39:0.15 40:0.175 41:0.2 42:0.2125 43:0.2875 44:0.3125 45:0.2625 46:0.275 47:0.225 48:0.2 49:0.225 50:0.175 51:0.2125 52:0.25 53:0.175 54:0.225 55:0.275 56:0.35 57:0.0875 58:0.2125 59:0.125 60:0.075 61:0.1924 62:0.1849 63:0.0895 64:0.2393 65:0.2564 66:0.2332 67:0.3009 68:0.2279 69:0.2268 70:0.246 71:0.4451 72:0.1205 73:0.2415 74:0.3453 75:0.2186 76:0.2529 77:0.1922 78:0.1391 79:0.3165 80:0.344 81:0.348 82:0.2407 83:0.1719 84:0.3507 85:0.2344 86:0.1981 87:0.3869 88:0.2576 89:0.2251 90:0.1343 91:0.2232 92:0.3193 93:0.1021 94:0.4045 95:0.2432 96:0.1996 97:0.4041 98:0.3418 99:0.1779 100:0.3425 101:0.2762 102:0.3222 103:0.262 104:0.274 105:0.2448 106:0.4172 107:0.213 108:0.3298 109:0.3572 110:0.2874 111:0.2221 112:0.2885 113:0.2621 114:0.2967 115:0.3572 116:0.3482 117:0.0693 118:0.2473 119:0.3853 120:0.0984 
8 1:0.725 2:0.7 3:0.6625 4:0.65 5:0.65 6:0.625 7:0.625 8:0.6125 9:0.6125 10:0.6125 11:0.6125 12:0.6 13:0.5875 14:0.575 15:0.5625 16:0.5625 17:0.5375 18:0.525 19:0.5 20:0.475 21:0.4125 22:0.3625 23:0.3125 24:0.3125 25:0.2625 26:0.2375 27:0.175 28:0.1125 29:0.1625 30:0.325 31:0.325 32:0.175 33:0.4125 34:0.3375 35:0.1625 36:0.4 37:0.125 38:0.35 39:0.15 40:0.175 41:0.3375 42:0.1375 43:0.2875 44:0.125 45:0.3375 46:0.1125 47:0.325 48:0.2 49:0.25 50:0.25 51:0.2375 52:0.2625 53:0.2625 54:0.1625 55:0.3625 56:0.1875 57:0.1375 58:0.2375 59:0.2875 60:0.175 61:0.1924 62:0.1849 63:0.1781 64:0.1692 65:0.1625 66:0.1604 67:0.1506 68:0.1434 69:0.1362 70:0.1339 71:0.1293 72:0.122 73:0.1077 74:0.1055 75:0.091 76:0.0866 77:0.0866 78:0.0817 79:0.0769 80:0.0674 81:0.058 82:0.0534 83:0.0463 84:0.0424 85:0.0331 86:0.0264 87:0.0122 88:0.0099 89:0.0906 90:0.2667 91:0.3008 92:0.2913 93:0.3697 94:0.2044 95:0.2842 96:0.3654 97:0.2728 98:0.2361 99:0.2187 100:0.1932 101:0.2277 102:0.2011 103:0.262 104:0.1656 105:0.4035 106:0.2172 107:0.3669 108:0.3298 109:0.2282 110:0.2182 111:0.2766 112:0.2356 113:0.2051 114:0.1718 115:0.2936 116:0.2525 117:0.206 118:0.2207 119:0.2699 120:0.1772 
8 1:0.1375 2:0.2875 3:0.4375 4:0.15 5:0.2375 6:0.275 7:0.175 8:0.0875 9:0.3125 10:0.15 11:0.2125 12:0.1125 13:0.1375 14:0.1625 15:0.1875 16:0.0875 17:0.075 18:0.25 19:0.075 20:0.1125 21:0.1125 22:0.2 23:0.4125 24:0.2625 25:0.225 26:0.2875 27:0.15 28:0.1 29:0.2125 30:0.2375 31:0.6625 32:0.175 33:0.25 34:0.1625 35:0.1625 36:0.2375 37:0.125 38:0.1625 39:0.4 40:0.2125 41:0.05 42:0.325 43:0.275 44:0.375 45:0.1375 46:0.3 47:0.2625 48:0.375 49:0.0625 50:0.1625 51:0.1875 52:0.2375 53:0.375 54:0.225 55:0.3625 56:0.1125 57:0.2125 58:0.15 59:0.225 60:0.2125 61:0.1709 62:0.2738 63:0.3756 64:0.2725 65:0.2047 66:0.2231 67:0.2434 68:0.1485 69:0.3477 70:0.2099 71:0.2205 72:0.1629 73:0.193 74:0.3453 75:0.345 76:0.1404 77:0.1087 78:0.189 79:0.1063 80:0.2498 81:0.2196 82:0.3034 83:0.2844 84:0.2264 85:0.3239 86:0.3208 87:0.1028 88:0.1715 89:0.2251 90:0.293 91:0.3457 92:0.2262 93:0.3278 94:0.2755 95:0.2842 96:0.2891 97:0.2728 98:0.1578 99:0.4367 100:0.1595 101:0.0513 102:0.3807 103:0.2885 104:0.3115 105:0.2097 106:0.2654 107:0.2948 108:0.2752 109:0.1733 110:0.1687 111:0.2869 112:0.3076 113:0.289 114:0.2646 115:0.2936 116:0.2441 117:0.3056 118:0.248 119:0.2601 120:0.2971 
8 1:0.25 2:0.275 3:0.25 4:0.325 5:0.375 6:0.175 7:0.175 8:0.375 9:0.1 10:0.2875 11:0.5 12:0.375 13:0.1375 14:0.55 15:0.25 16:0.625 17:0.55 18:0.25 19:0.5875 20:0.35 21:0.1375 22:0.2875 23:0.275 24:0.2625 25:0.075 26:0.2375 27:0.175 28:0.7125 29:0.1875 30:0.2375 31:0.325 32:0.2875 33:0.1875 34:0.075 35:0.125 36:0.4 37:0.2875 38:0.1375 39:0.175 40:0.3375 41:0.2 42:0.325 43:0.1125 44:0.3125 45:0.2125 46:0.3 47:0.2 48:0.3875 49:0.175 50:0.3 51:0.275 52:0.1875 53:0.325 54:0.2875 55:0.1375 56:0.275 57:0.2125 58:0.15 59:0.1875 60:0.075 61:0.2958 62:0.2678 63:0.2628 64:0.3087 65:0.4415 66:0.1212 67:0.3119 68:0.2136 69:0.1272 70:0.246 71:0.4451 72:0.2684 73:0.0834 74:0.3267 75:0.3477 76:0.442 77:0.3508 78:0.189 79:0.3517 80:0.344 81:0.1601 82:0.1762 83:0.1719 84:0.2264 85:0.0692 86:0.2342 87:0.2157 88:0.4065 89:0.2815 90:0.293 91:0.3008 92:0.2473 93:0.169 94:0.0562 95:0.1906 96:0.3654 97:0.258 98:0.1874 99:0.2342 100:0.3922 101:0.2762 102:0.3807 103:0.2091 104:0.274 105:0.2295 106:0.2654 107:0.2893 108:0.4295 109:0.1628 110:0.3774 111:0.303 112:0.2288 113:0.3934 114:0.4058 115:0.3174 116:0.2957 117:0.3056 118:0.2572 119:0.2728 120:0.2723 
8 1:0.25 2:0.5125 3:0.4375 4:0.3125 5:0.3625 6:0.3875 7:0.2875 8:0.4875 9:0.2375 10:0.175 11:0.5 12:0.1125 13:0.525 14:0.1625 15:0.2 16:0.075 17:0.225 18:0.4875 19:0.5875 20:0.1 21:0.55 22:0.6125 23:0.025 24:0.15 25:0.5625 26:0.375 27:0.275 28:0.7125 29:0.725 30:0.125 31:0.2375 32:0.3 33:0.6375 34:0.3375 35:0.325 36:0.3 37:0.125 38:0.3 39:0.275 40:0.35 41:0.175 42:0.325 43:0.1875 44:0.375 45:0.1875 46:0.275 47:0.125 48:0.3875 49:0.1125 50:0.25 51:0.3125 52:0.2375 53:0.325 54:0.2875 55:0.275 56:0.35 57:0.2125 58:0.2375 59:0.2625 60:0.35 61:0.2958 62:0.4012 63:0.3756 64:0.262 65:0.3195 66:0.3846 67:0.1954 68:0.36 69:0.2514 70:0.2475 71:0.4451 72:0.1792 73:0.3307 74:0.254 75:0.2843 76:0.0771 77:0.1712 78:0.3747 79:0.3517 80:0.1114 81:0.4425 82:0.3675 83:0.0676 84:0.2351 85:0.3653 86:0.2487 87:0.3796 88:0.4065 89:0.4712 90:0.2088 91:0.3792 92:0.3206 93:0.1634 94:0.3817 95:0.2917 96:0.1579 97:0.2728 98:0.3418 99:0.3257 100:0.1676 101:0.2534 102:0.3807 103:0.3764 104:0.3115 105:0.2738 106:0.4172 107:0.1764 108:0.4295 109:0.1213 110:0.2903 111:0.4125 112:0.3076 113:0.3934 114:0.4058 115:0.3572 116:0.3482 117:0.3092 118:0.299 119:0.2992 120:0.3758 
1.505837862460288 1:0.25 2:0.3375 3:0.4375 4:0.2 5:0.375 6:0.175 7:0.1875 8:0.4875 9:0.1875 10:0.475 11:0.1375 12:0.175 13:0.1375 14:0.1375 15:0.525 16:0.625 17:0.15 18:0.4875 19:0.5875 20:0.025 21:0.15 22:0.6125 23:0.275 24:0.2125 25:0.5625 26:0.5875 27:0.2375 28:0.6375 29:0.25 30:0.3 31:0.2375 32:0.3 33:0.6375 34:0.1125 35:0.4875 36:0.3125 37:0.375 38:0.1375 39:0.4 40:0.3375 41:0.25 42:0.2 43:0.1875 44:0.125 45:0.3375 46:0.175 47:0.2625 48:0.3875 49:0.375 50:0.3 51:0.3125 52:0.3125 53:0.325 54:0.225 55:0.3625 56:0.275 57:0.275 58:0.15 59:0.2625 60:0.1125 61:0.2958 62:0.2884 63:0.3756 64:0.2066 65:0.4415 66:0.2332 67:0.2634 68:0.36 69:0.1917 70:0.3845 71:0.2933 72:0.2643 73:0.0834 74:0.1828 75:0.3548 76:0.442 77:0.071 78:0.3747 79:0.3517 80:0.05 81:0.2944 82:0.3675 83:0.2518 84:0.2694 85:0.3653 86:0.3282 87:0.2132 88:0.1561 89:0.2977 90:0.3321 91:0.3792 92:0.3206 93:0.1634 94:0.2246 95:0.3898 96:0.325 97:0.1924 98:0.2187 99:0.4367 100:0.3922 101:0.3089 102:0.1968 103:0.3764 104:0.1584 105:0.4035 106:0.1928 107:0.2948 108:0.4295 109:0.2546 110:0.3774 111:0.4125 112:0.3146 113:0.3934 114:0.2967 115:0.2936 116:0.2957 117:0.4116 118:0.1802 119:0.2992 120:0.2694 
8 1:0.45 2:0.5125 3:0.4375 4:0.2 5:0.1875 6:0.3 7:0.175 8:0.375 9:0.575 10:0.2 11:0.3 12:0.6625 13:0.4 14:0.4125 15:0.525 16:0.1625 17:0.1125 18:0.0375 19:0.2375 20:0.225 21:0.3 22:0.0875 23:0.275 24:0.15 25:0.0625 26:0.3125 27:0.1125 28:0.275 29:0.2625 30:0.075 31:0.6625 32:0.2875 33:0.2625 34:0.4625 35:0.4875 36:0.2375 37:0.0375 38:0.1875 39:0.2375 40:0.25 41:0.25 42:0.2125 43:0.1125 44:0.3 45:0.2125 46:0.1625 47:0.0875 48:0.375 49:0.1625 50:0.2375 51:0.3125 52:0.3125 53:0.375 54:0.225 55:0.0625 56:0.15 57:0.275 58:0.15 59:0.2625 60:0.1125 61:0.4019 62:0.4012 63:0.3756 64:0.2066 65:0.2564 66:0.3073 67:0.3119 68:0.2136 69:0.4114 70:0.1645 71:0.2184 72:0.4481 73:0.3108 74:0.214 75:0.3548 76:0.2523 77:0.2282 78:0.069 79:0.3249 80:0.3412 81:0.2296 82:0.1609 83:0.1719 84:0.2351 85:0.0917 86:0.3467 87:0.1909 88:0.2701 89:0.1861 90:0.0712 91:0.3457 92:0.2473 93:0.3167 94:0.4045 95:0.3898 96:0.2475 97:0.0868 98:0.3591 99:0.3046 100:0.3087 101:0.3089 102:0.3222 103:0.1011 104:0.4304 105:0.2654 106:0.2723 107:0.0998 108:0.2752 109:0.1547 110:0.2579 111:0.4125 112:0.3146 113:0.289 114:0.2967 115:0.0377 116:0.2037 117:0.4116 118:0.2572 119:0.2992 120:0.2694 
8 1:0.3 2:0.3375 3:0.1625 4:0.225 5:0.3 6:0.175 7:0.5625 8:0.3375 9:0.15 10:0.1875 11:0.3375 12:0.2875 13:0.2875 14:0.3 15:0.325 16:0.625 17:0.275 18:0.3625 19:0.2875 20:0.175 21:0.2875 22:0.6125 23:0.5 24:0.75 25:0.325 26:0.375 27:0.15 28:0.1 29:0.2 30:0.125 31:0.1375 32:0.15 33:0.3375 34:0.2125 35:0.4375 36:0.3 37:0.3 38:0.3 39:0.4 40:0.125 41:0.175 42:0.275 43:0.275 44:0.3125 45:0.1125 46:0.275 47:0.125 48:0.15 49:0.25 50:0.25 51:0.2625 52:0.1875 53:0.175 54:0.225 55:0.2375 56:0.1875 57:0.275 58:0.1625 59:0.075 60:0.3 61:0.2398 62:0.2884 63:0.2403 64:0.3165 65:0.2962 66:0.2332 67:0.3503 68:0.3168 69:0.2895 70:0.2976 71:0.275 72:0.1601 73:0.2937 74:0.2922 75:0.2122 76:0.442 77:0.1911 78:0.3291 79:0.2088 80:0.1124 81:0.3042 82:0.3675 83:0.4033 84:0.3441 85:0.2712 86:0.2487 87:0.1028 88:0.2282 89:0.2262 90:0.3157 91:0.1453 92:0.164 93:0.4092 94:0.1867 95:0.2432 96:0.1579 97:0.3049 98:0.3418 99:0.4367 100:0.0724 101:0.1738 102:0.1814 103:0.2885 104:0.274 105:0.1903 106:0.4172 107:0.1808 108:0.2998 109:0.2282 110:0.2903 111:0.281 112:0.2288 113:0.2621 114:0.2967 115:0.2165 116:0.2525 117:0.1705 118:0.1932 119:0.0941 120:0.24 
6.955264797984845 1:0.45 2:0.3375 3:0.225 4:0.325 5:0.3 6:0.275 7:0.1875 8:0.2 9:0.2875 10:0.475 11:0.3 12:0.375 13:0.35 14:0.1375 15:0.25 16:0.625 17:0.55 18:0.4875 19:0.2625 20:0.375 21:0.1625 22:0.1 23:0.175 24:0.15 25:0.3625 26:0.0875 27:0.225 28:0.7125 29:0.1125 30:0.1375 31:0.325 32:0.45 33:0.3375 34:0.075 35:0.3875 36:0.1375 37:0.2875 38:0.1875 39:0.2125 40:0.3375 41:0.175 42:0.25 43:0.225 44:0.375 45:0.2125 46:0.25 47:0.2375 48:0.2625 49:0.25 50:0.2625 51:0.2375 52:0.2 53:0.05 54:0.2625 55:0.2875 56:0.1875 57:0.275 58:0.3375 59:0.2625 60:0.15 61:0.4019 62:0.2884 63:0.2685 64:0.3087 65:0.2962 66:0.2 67:0.2766 68:0.3124 69:0.2165 70:0.3845 71:0.2184 72:0.2684 73:0.2342 74:0.1828 75:0.3477 76:0.442 77:0.3508 78:0.3747 79:0.2994 80:0.2745 81:0.0959 82:0.1733 83:0.2131 84:0.2351 85:0.1479 86:0.1513 87:0.1634 88:0.4065 89:0.1612 90:0.2189 91:0.3008 92:0.398 93:0.4092 94:0.0562 95:0.2043 96:0.1833 97:0.258 98:0.3591 99:0.1185 100:0.3922 101:0.1738 102:0.2478 103:0.18 104:0.3115 105:0.2574 106:0.2345 107:0.2115 108:0.2473 109:0.2282 110:0.242 111:0.21 112:0.1839 113:0.0677 114:0.2355 115:0.2541 116:0.2525 117:0.1705 118:0.3332 119:0.2992 120:0.1615 
8 1:0.2125 2:0.175 3:0.25 4:0.2 5:0.375 6:0.275 7:0.1875 8:0.375 9:0.175 10:0.2875 11:0.5 12:0.6625 13:0.525 14:0.3 15:0.25 16:0.075 17:0.0875 18:0.25 19:0.0875 20:0.1375 21:0.1375 22:0.3375 23:0.5 24:0.125 25:0.125 26:0.3875 27:0.3875 28:0.7125 29:0.725 30:0.075 31:0.2875 32:0.2375 33:0.25 34:0.2125 35:0.4875 36:0.3 37:0.3 38:0.4 39:0.2375 40:0.25 41:0.2375 42:0.25 43:0.275 44:0.3 45:0.2125 46:0.3125 47:0.125 48:0.0375 49:0.2375 50:0.275 51:0.2625 52:0.2125 53:0.2 54:0.225 55:0.1625 56:0.225 57:0.275 58:0.1625 59:0.3125 60:0.3625 61:0.2446 62:0.2844 63:0.2628 64:0.2066 65:0.4415 66:0.2 67:0.2766 68:0.2136 69:0.1697 70:0.246 71:0.4451 72:0.4481 73:0.3307 74:0.2422 75:0.3477 76:0.0771 77:0.1922 78:0.189 79:0.2615 80:0.1868 81:0.1601 82:0.1878 83:0.4033 84:0.1915 85:0.1794 86:0.2027 87:0.3869 88:0.4065 89:0.4712 90:0.0712 91:0.1514 92:0.3885 93:0.3278 94:0.1867 95:0.3898 96:0.1579 97:0.3049 98:0.1935 99:0.3046 100:0.3087 101:0.2638 102:0.2478 103:0.2885 104:0.2209 105:0.2574 106:0.2056 107:0.1795 108:0.0746 109:0.2912 110:0.2376 111:0.281 112:0.2042 113:0.3078 114:0.2967 115:0.1672 116:0.3397 117:0.1705 118:0.1932 119:0.2094 120:0.3109 
8 1:0.175 2:0.1125 3:0.25 4:0.1375 5:0.375 6:0.3875 7:0.5625 8:0.2 9:0.2625 10:0.1375 11:0.1125 12:0.2875 13:0.175 14:0.1 15:0.175 16:0.175 17:0.55 18:0.125 19:0.3125 20:0.1375 21:0.3 22:0.6125 23:0.5 24:0.1 25:0.3625 26:0.2125 27:0.3 28:0.275 29:0.1125 30:0.55 31:0.325 32:0.4 33:0.2125 34:0.15 35:0.1625 36:0.1625 37:0.2875 38:0.4 39:0.1625 40:0.35 41:0.2 42:0.1125 43:0.1875 44:0.3 45:0.2125 46:0.3125 47:0.2625 48:0.2625 49:0.1 50:0.275 51:0.2375 52:0.2 53:0.2375 54:0.2375 55:0.2375 56:0.175 57:0.225 58:0.15 59:0.1875 60:0.3 61:0.2558 62:0.159 63:0.1687 64:0.2815 65:0.4415 66:0.3846 67:0.3503 68:0.2488 69:0.256 70:0.0884 71:0.1628 72:0.1601 73:0.2796 74:0.1701 75:0.1343 76:0.1918 77:0.3508 78:0.2008 79:0.2403 80:0.1868 81:0.2296 82:0.3675 83:0.4033 84:0.0887 85:0.1479 86:0.1599 87:0.2849 88:0.2701 89:0.1612 90:0.4234 91:0.3008 92:0.1868 93:0.3043 94:0.3214 95:0.2424 96:0.3065 97:0.258 98:0.1935 99:0.3344 100:0.1676 101:0.2224 102:0.0737 103:0.2408 104:0.2462 105:0.2574 106:0.2056 107:0.2948 108:0.2473 109:0.1462 110:0.2959 111:0.21 112:0.1839 113:0.1917 114:0.233 115:0.2165 116:0.2146 117:0.2049 118:0.1802 119:0.2728 120:0.24 
1.391385309238988 1:0.3 2:0.2125 3:0.25 4:0.1 5:0.1875 6:0.275 7:0.1375 8:0.0875 9:0.2875 10:0.35 11:0.225 12:0.3625 13:0.2875 14:0.3 15:0.225 16:0.4 17:0.3 18:0.25 19:0.2875 20:0.575 21:0.2875 22:0.1875 23:0.175 24:0.75 25:0.2875 26:0.2125 27:0.4125 28:0.7125 29:0.0875 30:0.1375 31:0.2625 32:0.4 33:0.2125 34:0.15 35:0.1625 36:0.1625 37:0.225 38:0.3875 39:0.1125 40:0.35 41:0.25 42:0.2125 43:0.425 44:0.2 45:0.3375 46:0.1625 47:0.2 48:0.375 49:0.7875 50:0.8125 51:0.825 52:0.8375 53:0.875 54:0.9 55:0.925 56:0.9625 57:0.975 58:0.975 59:0.975 60:1 61:0.2398 62:0.2668 63:0.1687 64:0.21 65:0.2119 66:0.2 67:0.1662 68:0.1485 69:0.2165 70:0.2222 71:0.266 72:0.2778 73:0.2937 74:0.2422 75:0.2131 76:0.2311 77:0.3119 78:0.189 79:0.2088 80:0.4136 81:0.3042 82:0.2105 83:0.2131 84:0.3441 85:0.3325 86:0.1599 87:0.2859 88:0.4065 89:0.0964 90:0.2189 91:0.2243 92:0.1868 93:0.3043 94:0.3214 95:0.2842 96:0.3065 97:0.1262 98:0.3398 99:0.0737 100:0.1676 101:0.1809 102:0.1972 103:0.2981 104:0.1728 105:0.4035 106:0.1623 107:0.2893 108:0.2752 109:0.1576 110:0.1622 111:0.1663 112:0.1731 113:0.1873 114:0.197 115:0.1991 116:0.2083 117:0.2129 118:0.2197 119:0.2197 120:0.2318 
0.4007768548160314 1:0.25 2:0.2875 3:0.2625 4:0.15 5:0.225 6:0.1125 7:0.175 8:0.375 9:0.2875 10:0.475 11:0.5 12:0.375 13:0.525 14:0.3 15:0.1 16:0.4 17:0.55 18:0.3625 19:0.425 20:0.575 21:0.3 22:0.1875 23:0.275 24:0.075 25:0.5625 26:0.2125 27:0.3 28:0.7125 29:0.2 30:0.2375 31:0.15 32:0.5125 33:0.4375 34:0.4125 35:0.4375 36:0.1875 37:0.1375 38:0.1875 39:0.125 40:0.3375 41:0.2 42:0.275 43:0.225 44:0.2 45:0.3125 46:0.175 47:0.125 48:0.2625 49:0.1125 50:0.0875 51:0.2125 52:0.0625 53:0.375 54:0.2625 55:0.1 56:0.225 57:0.1375 58:0.0875 59:0.125 60:0.175 61:0.2958 62:0.2738 63:0.3151 64:0.2725 65:0.3001 66:0.0732 67:0.3119 68:0.2136 69:0.3456 70:0.3845 71:0.4451 72:0.2684 73:0.3307 74:0.2422 75:0.166 76:0.2311 77:0.3508 78:0.3291 79:0.3245 80:0.4136 81:0.348 82:0.2105 83:0.2518 84:0.1372 85:0.3653 86:0.1599 87:0.2849 88:0.4065 89:0.299 90:0.293 91:0.1839 92:0.1619 93:0.2313 94:0.1902 95:0.2432 96:0.196 97:0.1593 98:0.3024 99:0.1338 100:0.3922 101:0.2224 102:0.1814 103:0.2112 104:0.1728 105:0.3286 106:0.1973 107:0.1795 108:0.2324 109:0.1213 110:0.1353 111:0.2232 112:0.0851 113:0.289 114:0.2355 115:0.1383 116:0.1959 117:0.206 118:0.1714 119:0.1 120:0.2696 
8 1:0.175 2:0.1625 3:0.25 4:0.05 5:0.225 6:0.275 7:0.2125 8:0.4875 9:0.575 10:0.2875 11:0.5 12:0.375 13:0.0625 14:0.3 15:0.525 16:0.4 17:0.2875 18:0.4875 19:0.425 20:0.275 21:0.2875 22:0.075 23:0.5 24:0.175 25:0.2875 26:0.5875 27:0.3 28:0.275 29:0.4875 30:0.05 31:0.2625 32:0.375 33:0.325 34:0.2125 35:0.075 36:0.1625 37:0.225 38:0.3 39:0.2125 40:0.175 41:0.15 42:0.25 43:0.275 44:0.175 45:0.2125 46:0.175 47:0.1 48:0.0875 49:0.1375 50:0.0875 51:0.275 52:0.2625 53:0.1375 54:0.1875 55:0.1375 56:0.1125 57:0.175 58:0.15 59:0.125 60:0.1125 61:0.2558 62:0.2101 63:0.2628 64:0.0527 65:0.3001 66:0.2 67:0.2901 68:0.36 69:0.4114 70:0.246 71:0.4451 72:0.2684 73:0.1903 74:0.2422 75:0.3548 76:0.2311 77:0.2955 78:0.3747 79:0.3245 80:0.1627 81:0.3042 82:0.1593 83:0.4033 84:0.2082 85:0.3325 86:0.3282 87:0.2849 88:0.2701 89:0.1651 90:0.1913 91:0.2243 92:0.1962 93:0.2234 94:0.1867 95:0.1377 96:0.3065 97:0.1262 98:0.3418 99:0.1916 100:0.2345 101:0.1602 102:0.2144 103:0.2885 104:0.2044 105:0.2295 106:0.2976 107:0.1311 108:0.0842 109:0.2455 110:0.0657 111:0.303 112:0.2356 113:0.1588 114:0.2759 115:0.2426 116:0.1781 117:0.12 118:0.2572 119:0.1 120:0.2694 
6.385821364899964 1:0.1625 2:0.1875 3:0.4125 4:0.325 5:0.2375 6:0.275 7:0.1875 8:0.2375 9:0.1625 10:0.05 11:0.3 12:0.2375 13:0.15 14:0.0625 15:0.525 16:0.2875 17:0.275 18:0.4875 19:0.425 20:0.225 21:0.55 22:0.6125 23:0.3 24:0.75 25:0.2875 26:0.5875 27:0.2375 28:0.7125 29:0.2 30:0.2375 31:0.2875 32:0.2375 33:0.25 34:0.2125 35:0.325 36:0.275 37:0.2375 38:0.325 39:0.1625 40:0.25 41:0.1125 42:0.275 43:0.225 44:0.3 45:0.3375 46:0.1625 47:0.225 48:0.2125 49:0.2125 50:0.2625 51:0.0875 52:0.25 53:0.2 54:0.225 55:0.2875 56:0.275 57:0.2625 58:0.2375 59:0.275 60:0.3625 61:0.295 62:0.2638 63:0.3092 64:0.3087 65:0.2047 66:0.2 67:0.2108 68:0.2551 69:0.1862 70:0.1365 71:0.2184 72:0.2382 73:0.2415 74:0.079 75:0.3548 76:0.202 77:0.1911 78:0.3747 79:0.3245 80:0.3412 81:0.4425 82:0.3675 83:0.3072 84:0.3441 85:0.3325 86:0.3282 87:0.2132 88:0.4065 89:0.299 90:0.293 91:0.1514 92:0.3885 93:0.3278 94:0.1867 95:0.2917 96:0.1996 97:0.2185 98:0.2145 99:0.1701 100:0.3087 101:0.1748 102:0.226 103:0.18 104:0.2209 105:0.4035 106:0.2723 107:0.213 108:0.1381 109:0.2882 110:0.242 111:0.1619 112:0.3042 113:0.3078 114:0.2646 115:0.2541 116:0.1796 117:0.2172 118:0.2207 119:0.2021 120:0.3109 
8 1:0.175 2:0.1125 3:0.1625 4:0.1875 5:0.1125 6:0.3875 7:0.2875 8:0.375 9:0.575 10:0.3125 11:0.275 12:0.6625 13:0.525 14:0.3625 15:0.525 16:0.325 17:0.55 18:0.25 19:0.5875 20:0.35 21:0.2875 22:0.1875 23:0.175 24:0.3875 25:0.325 26:0.0625 27:0.4125 28:0.1625 29:0.2375 30:0.2125 31:0.325 32:0.1375 33:0.325 34:0.3375 35:0.4375 36:0.4 37:0.2 38:0.1375 39:0.2125 40:0.2875 41:0.225 42:0.2125 43:0.2375 44:0.375 45:0.2625 46:0.2125 47:0.125 48:0.2 49:0.25 50:0.1375 51:0.275 52:0.25 53:0.325 54:0.175 55:0.1375 56:0.175 57:0.2125 58:0.2375 59:0.1625 60:0.3625 61:0.1705 62:0.159 63:0.2403 64:0.2239 65:0.0867 66:0.3846 67:0.1954 68:0.2136 69:0.4114 70:0.3174 71:0.3453 72:0.4481 73:0.3307 74:0.3005 75:0.3548 76:0.3418 77:0.3508 78:0.189 79:0.3517 80:0.344 81:0.3042 82:0.1534 83:0.2131 84:0.277 85:0.2712 86:0.1508 87:0.2859 88:0.2191 89:0.175 90:0.2138 91:0.3008 92:0.152 93:0.2234 94:0.2044 95:0.2432 96:0.3654 97:0.2399 98:0.2187 99:0.1185 100:0.3322 101:0.2696 102:0.1972 103:0.299 104:0.3115 105:0.2448 106:0.2279 107:0.1795 108:0.2244 109:0.2282 110:0.25 111:0.303 112:0.3042 113:0.3934 114:0.1953 115:0.3174 116:0.2146 117:0.3092 118:0.299 119:0.2567 120:0.3109 
1.349505360031819 1:0.2125 2:0.175 3:0.1 4:0.1875 5:0.075 6:0.275 7:0.175 8:0.2 9:0.3125 10:0.2 11:0.0875 12:0.1 13:0.525 14:0.4125 15:0.15 16:0.625 17:0.55 18:0.4875 19:0.5875 20:0.575 21:0.55 22:0.125 23:0.5 24:0.75 25:0.2875 26:0.5875 27:0.4875 28:0.7125 29:0.725 30:0.55 31:0.0625 32:0.4 33:0.1 34:0.45 35:0.2 36:0.3 37:0.225 38:0.4 39:0.2375 40:0.2 41:0.2875 42:0.175 43:0.1875 44:0.3 45:0.2125 46:0.0625 47:0.125 48:0.2125 49:0.1375 50:0.2625 51:0.1 52:0.0625 53:0.225 54:0.25 55:0.1625 56:0.225 57:0.1875 58:0.1625 59:0.125 60:0.1 61:0.2148 62:0.2194 63:0.2037 64:0.2393 65:0.1947 66:0.2231 67:0.2434 68:0.3124 69:0.3477 70:0.1645 71:0.0681 72:0.0527 73:0.3307 74:0.214 75:0.2186 76:0.442 77:0.3508 78:0.3747 79:0.3517 80:0.4136 81:0.4425 82:0.2407 83:0.4033 84:0.3441 85:0.3325 86:0.3282 87:0.3532 88:0.4065 89:0.4712 90:0.4234 91:0.1029 92:0.1868 93:0.1431 94:0.1454 95:0.2923 96:0.1579 97:0.1539 98:0.1935 99:0.3046 100:0.1616 101:0.325 102:0.3397 103:0.3764 104:0.4304 105:0.2073 106:0.1749 107:0.1808 108:0.1381 109:0.2297 110:0.242 111:0.0942 112:0.0851 113:0.2744 114:0.2376 115:0.1672 116:0.2346 117:0.2209 118:0.1932 119:0.1 120:0.1069 
3.239245158389317 1:0.175 2:0.2875 3:0.4125 4:0.1125 5:0.1125 6:0.1125 7:0.5625 8:0.375 9:0.1625 10:0.475 11:0.5 12:0.6625 13:0.525 14:0.55 15:0.525 16:0.2125 17:0.55 18:0.4875 19:0.425 20:0.575 21:0.55 22:0.6125 23:0.5 24:0.75 25:0.3625 26:0.1 27:0.3 28:0.0625 29:0.4875 30:0.275 31:0.8875 32:0.4 33:0.2125 34:0.45 35:0.4875 36:0.2375 37:0.3875 38:0.3 39:0.15 40:0.2 41:0.175 42:0.2125 43:0.1875 44:0.2125 45:0.0375 46:0.05 47:0.2 48:0.15 49:0.1 50:0.25 51:0.1875 52:0.2 53:0.1375 54:0.0875 55:0.0375 56:0.35 57:0.2625 58:0.275 59:0.175 60:0.35 61:0.2238 62:0.2738 63:0.3092 64:0.1592 65:0.0867 66:0.0732 67:0.3503 68:0.2136 69:0.1862 70:0.3845 71:0.4451 72:0.4481 73:0.3307 74:0.3267 75:0.3548 76:0.2529 77:0.3508 78:0.3747 79:0.3245 80:0.4136 81:0.4425 82:0.3675 83:0.4033 84:0.3441 85:0.1479 86:0.06 87:0.221 88:0.1277 89:0.1651 90:0.2664 91:0.1403 92:0.1868 93:0.3043 94:0.1454 95:0.3898 96:0.2891 97:0.4041 98:0.3418 99:0.2187 100:0.1616 101:0.1738 102:0.1972 103:0.2423 104:0.2064 105:0.0854 106:0.0795 107:0.2893 108:0.2998 109:0.1462 110:0.2182 111:0.2249 112:0.1839 113:0.1046 114:0.1757 115:0.0694 116:0.3482 117:0.2172 118:0.2317 119:0.1962 120:0.3758 
6.034222522468546 1:0.3 2:0.3375 3:0.25 4:0.05 5:0.1125 6:0.3875 7:0.2875 8:0.1875 9:0.575 10:0.475 11:0.5 12:0.6625 13:0.525 14:0.55 15:0.15 16:0.625 17:0.55 18:0.25 19:0.5875 20:0.575 21:0.55 22:0.6125 23:0.5 24:0.275 25:0.075 26:0.2 27:0.1 28:0.6375 29:0.2 30:0.8625 31:0.1875 32:0.2375 33:0.6375 34:0.4625 35:0.2 36:0.4 37:0.3875 38:0.1875 39:0.1625 40:0.2 41:0.15 42:0.2 43:0.2375 44:0.05 45:0.1375 46:0.1625 47:0.2375 48:0.1125 49:0.25 50:0.275 51:0.1375 52:0.05 53:0.1375 54:0.0875 55:0.275 56:0.1625 57:0.1875 58:0.15 59:0.125 60:0.0625 61:0.2398 62:0.2884 63:0.1687 64:0.0527 65:0.0867 66:0.3846 67:0.1954 68:0.2025 69:0.4114 70:0.3845 71:0.4451 72:0.4481 73:0.3307 74:0.3267 75:0.2186 76:0.442 77:0.3508 78:0.3613 79:0.3517 80:0.4136 81:0.4425 82:0.3675 83:0.4033 84:0.1437 85:0.0692 86:0.2214 87:0.1992 88:0.1561 89:0.299 90:0.1343 91:0.2366 92:0.3885 93:0.1634 94:0.4045 95:0.2923 96:0.3654 97:0.4041 98:0.2493 99:0.1701 100:0.1616 101:0.1414 102:0.1968 103:0.299 104:0.1052 105:0.0718 106:0.2723 107:0.2115 108:0.163 109:0.2282 110:0.2376 111:0.2196 112:0.1415 113:0.1588 114:0.0888 115:0.3572 116:0.2276 117:0.2209 118:0.1502 119:0.3853 120:0.0715 
2.672372499720662 1:0.45 2:0.5125 3:0.4375 4:0.375 5:0.2375 6:0.3875 7:0.5625 8:0.3 9:0.575 10:0.475 11:0.5 12:0.6625 13:0.525 14:0.1 15:0.05 16:0.1625 17:0.0875 18:0.1 19:0.425 20:0.1375 21:0.225 22:0.2875 23:0.3 24:0.275 25:0.5625 26:0.1875 27:0.4875 28:0.7125 29:0.2125 30:0.8625 31:0.1 32:0.375 33:0.2625 34:0.075 35:0.0125 36:0.1625 37:0.3 38:0.175 39:0.35 40:0.225 41:0.2 42:0.0875 43:0.2 44:0.0625 45:0.3375 46:0.175 47:0.1875 48:0.2125 49:0.375 50:0.0875 51:0.2625 52:0.1875 53:0.125 54:0.1 55:0.275 56:0.275 57:0.1375 58:0.2 59:0.075 60:0.35 61:0.4019 62:0.4012 63:0.3756 64:0.3544 65:0.2047 66:0.3846 67:0.3503 68:0.3072 69:0.4114 70:0.3845 71:0.4451 72:0.4481 73:0.3307 74:0.1701 75:0.0633 76:0.2151 77:0.1391 78:0.23 79:0.3245 80:0.1868 81:0.15 82:0.2229 83:0.3072 84:0.1437 85:0.3653 86:0.3363 87:0.3532 88:0.4065 89:0.2251 90:0.1343 91:0.1622 92:0.1962 93:0.3167 94:0.108 95:0.0634 96:0.2727 97:0.3049 98:0.1624 99:0.2546 100:0.2565 101:0.2224 102:0.1047 103:0.1391 104:0.0907 105:0.4035 106:0.1973 107:0.1997 108:0.1381 109:0.3604 110:0.0657 111:0.2933 112:0.2872 113:0.1917 114:0.0883 115:0.3572 116:0.1796 117:0.206 118:0.1769 119:0.0941 120:0.3758 
5.053277202565723 1:0.3 2:0.2875 3:0.1875 4:0.375 5:0.3 6:0.3 7:0.1 8:0.4875 9:0.15 10:0.2375 11:0.15 12:0.1 13:0.1625 14:0.3 15:0.05 16:0.4 17:0.3 18:0.125 19:0.2375 20:0.375 21:0.2375 22:0.1875 23:0.5 24:0.175 25:0.325 26:0.2125 27:0.4875 28:0.2875 29:0.725 30:0.1875 31:0.0875 32:0.1625 33:0.4375 34:0.2125 35:0.275 36:0.1875 37:0.2375 38:0.125 39:0.1125 40:0.5 41:0.525 42:0.575 43:0.6 44:0.625 45:0.6625 46:0.7125 47:0.75 48:0.7625 49:0.7875 50:0.8125 51:0.825 52:0.8375 53:0.875 54:0.9 55:0.925 56:0.9625 57:0.975 58:0.975 59:0.975 60:1 61:0.2335 62:0.2738 63:0.2929 64:0.3544 65:0.2962 66:0.3073 67:0.2126 68:0.36 69:0.2895 70:0.333 71:0.1562 72:0.1205 73:0.1906 74:0.2922 75:0.096 76:0.2311 77:0.3119 78:0.2008 79:0.1147 80:0.2745 81:0.1555 82:0.2105 83:0.4033 84:0.2082 85:0.2712 86:0.1599 87:0.3532 88:0.2037 89:0.4712 90:0.1385 91:0.0683 92:0.2032 93:0.2313 94:0.1867 95:0.2208 96:0.196 97:0.2185 98:0.1711 99:0.1739 100:0.0718 101:0.0885 102:0.0981 103:0.0981 104:0.1146 105:0.1219 106:0.1268 107:0.1293 108:0.1462 109:0.1576 110:0.1622 111:0.1663 112:0.1731 113:0.1873 114:0.197 115:0.1991 116:0.2083 117:0.2129 118:0.2197 119:0.2197 120:0.2318 
7.613662129690817 1:0.725 2:0.7 3:0.6625 4:0.65 5:0.65 6:0.625 7:0.625 8:0.6125 9:0.6125 10:0.6125 11:0.6125 12:0.6 13:0.5875 14:0.575 15:0.5625 16:0.5625 17:0.5375 18:0.525 19:0.5 20:0.475 21:0.4125 22:0.3625 23:0.2125 24:0.1625 25:0.325 26:0.2 27:0.3875 28:0.2625 29:0.1875 30:0.1375 31:0.2875 32:0.4 33:0.1 34:0.4625 35:0.4875 36:0.225 37:0.3 38:0.175 39:0.2125 40:0.2125 41:0.175 42:0.1 43:0.1125 44:0.3 45:0.3125 46:0.3125 47:0.225 48:0.2625 49:0.225 50:0.3 51:0.2625 52:0.2 53:0.175 54:0.2875 55:0.0625 56:0.35 57:0.2625 58:0.1375 59:0.1375 60:0.3625 61:0.1924 62:0.1849 63:0.1781 64:0.1692 65:0.1625 66:0.1604 67:0.1506 68:0.1434 69:0.1362 70:0.1339 71:0.1293 72:0.122 73:0.1077 74:0.1055 75:0.091 76:0.0866 77:0.0866 78:0.0817 79:0.0769 80:0.0674 81:0.058 82:0.0534 83:0.089 84:0.2833 85:0.2712 86:0.2214 87:0.3869 88:0.2367 89:0.2815 90:0.2189 91:0.1514 92:0.1868 93:0.1431 94:0.4045 95:0.3898 96:0.1848 97:0.3049 98:0.1624 99:0.1185 100:0.1595 101:0.2534 102:0.1727 103:0.1011 104:0.4304 105:0.3286 106:0.2739 107:0.213 108:0.2473 109:0.3572 110:0.3774 111:0.2933 112:0.1847 113:0.2621 114:0.4058 115:0.0377 116:0.3482 117:0.2172 118:0.2061 119:0.1599 120:0.3109 
6.064805258094327 1:0.3 2:0.1875 3:0.25 4:0.2875 5:0.2375 6:0.2375 7:0.35 8:0.3375 9:0.175 10:0.1 11:0.1375 12:0.1875 13:0.2875 14:0.175 15:0.325 16:0.625 17:0.275 18:0.3625 19:0.425 20:0.2375 21:0.3 22:0.6125 23:0.2125 24:0.1 25:0.5625 26:0.375 27:0.3875 28:0.2875 29:0.725 30:0.325 31:0.8875 32:0.2875 33:0.2125 34:0.1875 35:0.125 36:0.275 37:0.3125 38:0.125 39:0.1625 40:0.125 41:0.2875 42:0.25 43:0.1875 44:0.125 45:0.1625 46:0.3125 47:0.125 48:0.3875 49:0.375 50:0.175 51:0.2125 52:0.1125 53:0.2 54:0.15 55:0.2875 56:0.15 57:0.2125 58:0.3375 59:0.2625 60:0.1875 61:0.2335 62:0.2638 63:0.1922 64:0.1471 65:0.1584 66:0.1832 67:0.3009 68:0.3168 69:0.1697 70:0.1542 71:0.2933 72:0.2623 73:0.2937 74:0.1388 75:0.2122 76:0.442 77:0.1911 78:0.274 79:0.3245 80:0.2784 81:0.348 82:0.3675 83:0.089 84:0.0887 85:0.3653 86:0.2487 87:0.3869 88:0.2037 89:0.4712 90:0.2667 91:0.1403 92:0.2473 93:0.3043 94:0.2713 95:0.1757 96:0.2914 97:0.302 98:0.1711 99:0.1701 100:0.0724 101:0.325 102:0.2478 103:0.3764 104:0.1584 105:0.1424 106:0.2739 107:0.1764 108:0.4295 109:0.3604 110:0.2874 111:0.2221 112:0.1858 113:0.3078 114:0.2175 115:0.2541 116:0.2037 117:0.3092 118:0.3332 119:0.2992 120:0.197 
8 1:0.1625 2:0.1875 3:0.25 4:0.2875 5:0.2375 6:0.3375 7:0.35 8:0.1375 9:0.1 10:0.175 11:0.225 12:0.375 13:0.1875 14:0.4125 15:0.525 16:0.2875 17:0.275 18:0.25 19:0.2375 20:0.35 21:0.55 22:0.1375 23:0.2125 24:0.75 25:0.325 26:0.3125 27:0.225 28:0.7125 29:0.3375 30:0.8625 31:0.325 32:0.2375 33:0.25 34:0.1625 35:0.2375 36:0.3125 37:0.225 38:0.1375 39:0.0875 40:0.3375 41:0.225 42:0.325 43:0.225 44:0.125 45:0.2125 46:0.1125 47:0.325 48:0.3875 49:0.225 50:0.1875 51:0.1625 52:0.2375 53:0.2 54:0.2625 55:0.1375 56:0.275 57:0.2125 58:0.3375 59:0.1625 60:0.025 61:0.295 62:0.193 63:0.1922 64:0.1471 65:0.1584 66:0.3321 67:0.3009 68:0.1638 69:0.1272 70:0.2475 71:0.266 72:0.2684 73:0.139 74:0.214 75:0.3548 76:0.202 77:0.2981 78:0.3613 79:0.3249 80:0.344 81:0.4425 82:0.0932 83:0.089 84:0.3441 85:0.2712 86:0.3467 87:0.1634 88:0.4065 89:0.3081 90:0.1343 91:0.3008 92:0.3885 93:0.3278 94:0.1359 95:0.225 96:0.325 97:0.1262 98:0.1874 99:0.1002 100:0.3922 101:0.2696 102:0.3807 103:0.2112 104:0.1584 105:0.2574 106:0.1192 107:0.3669 108:0.4295 109:0.3572 110:0.1999 111:0.1582 112:0.3076 113:0.2069 114:0.2355 115:0.2095 116:0.2957 117:0.3092 118:0.3332 119:0.2314 120:0.0415 
6.471032488956531 1:0.1125 2:0.1875 3:0.25 4:0.1375 5:0.15 6:0.275 7:0.5625 8:0.375 9:0.2375 10:0.3125 11:0.225 12:0.3625 13:0.525 14:0.15 15:0.125 16:0.625 17:0.3 18:0.3625 19:0.2375 20:0.575 21:0.3 22:0.1875 23:0.1875 24:0.3 25:0.2875 26:0.375 27:0.1125 28:0.1375 29:0.25 30:0.05 31:0.0875 32:0.45 33:0.2625 34:0.4625 35:0.125 36:0.225 37:0.3 38:0.175 39:0.4 40:0.3375 41:0.2 42:0.275 43:0.225 44:0.375 45:0.1375 46:0.2125 47:0.225 48:0.2625 49:0.375 50:0.25 51:0.2125 52:0.075 53:0.175 54:0.0875 55:0.3625 56:0.1125 57:0.275 58:0.1625 59:0.3125 60:0.075 61:0.1206 62:0.2638 63:0.2628 64:0.2815 65:0.145 66:0.2 67:0.3503 68:0.2136 69:0.2514 70:0.3174 71:0.266 72:0.2778 73:0.3307 74:0.073 75:0.0824 76:0.442 77:0.3119 78:0.274 79:0.1147 80:0.4136 81:0.2296 82:0.1534 83:0.1746 84:0.3507 85:0.3325 86:0.2487 87:0.1397 88:0.2326 89:0.2977 90:0.1913 91:0.0683 92:0.398 93:0.3167 94:0.4045 95:0.1906 96:0.1848 97:0.3049 98:0.1624 99:0.4367 100:0.3922 101:0.2762 102:0.1814 103:0.2112 104:0.3115 105:0.2097 106:0.2279 107:0.213 108:0.2473 109:0.2546 110:0.2903 111:0.2221 112:0.0654 113:0.2621 114:0.1757 115:0.2936 116:0.0901 117:0.1705 118:0.1932 119:0.2094 120:0.2723 
8 1:0.175 2:0.1875 3:0.2125 4:0.1875 5:0.1625 6:0.175 7:0.175 8:0.1875 9:0.3125 10:0.3125 11:0.1375 12:0.2875 13:0.075 14:0.15 15:0.125 16:0.1125 17:0.2875 18:0.1625 19:0.0375 20:0.575 21:0.1375 22:0.225 23:0.275 24:0.0625 25:0.125 26:0.225 27:0.1 28:0.2625 29:0.125 30:0.0875 31:0.6625 32:0.15 33:0.2625 34:0.3375 35:0.0875 36:0.3 37:0.2875 38:0.3875 39:0.1625 40:0.2125 41:0.175 42:0.0875 43:0.225 44:0.3 45:0.2125 46:0.0625 47:0.225 48:0.2625 49:0.1875 50:0.25 51:0.075 52:0.2125 53:0.1375 54:0.25 55:0.2 56:0.15 57:0.175 58:0.15 59:0.2125 60:0.1875 61:0.2238 62:0.2638 63:0.1644 64:0.2393 65:0.1669 66:0.2212 67:0.2434 68:0.2059 69:0.3477 70:0.3174 71:0.2933 72:0.1601 73:0.1728 74:0.073 75:0.1726 76:0.1826 77:0.2955 78:0.2753 79:0.0906 80:0.4136 81:0.142 82:0.236 83:0.1719 84:0.1848 85:0.2461 86:0.2378 87:0.1992 88:0.2367 89:0.1733 90:0.2025 91:0.3457 92:0.2426 93:0.3167 94:0.2044 95:0.246 96:0.1579 97:0.258 98:0.3398 99:0.1911 100:0.1595 101:0.1738 102:0.1601 103:0.2112 104:0.2462 105:0.2295 106:0.1749 107:0.2704 108:0.2324 109:0.2254 110:0.2903 111:0.0792 112:0.2156 113:0.1046 114:0.2376 115:0.2557 116:0.2037 117:0.12 118:0.1802 119:0.2291 120:0.197 
8 1:0.175 2:0.175 3:0.4125 4:0.3125 5:0.1375 6:0.275 7:0.0875 8:0.0875 9:0.1875 10:0.1875 11:0.3375 12:0.175 13:0.0875 14:0.55 15:0.0625 16:0.1125 17:0.1375 18:0.1 19:0.1625 20:0.1125 21:0.1375 22:0.225 23:0.075 24:0.0625 25:0.3625 26:0.5875 27:0.0625 28:0.2625 29:0.2 30:0.05 31:0.15 32:0.3 33:0.125 34:0.2375 35:0.3875 36:0.3 37:0.1375 38:0.35 39:0.2125 40:0.2 41:0.1875 42:0.2 43:0.2375 44:0.375 45:0.0625 46:0.175 47:0.0625 48:0.15 49:0.1375 50:0.1875 51:0.1 52:0.2 53:0.1625 54:0.15 55:0.2 56:0.225 57:0.0875 58:0.1625 59:0.2875 60:0.1 61:0.2238 62:0.2263 63:0.3092 64:0.262 65:0.2601 66:0.2 67:0.1753 68:0.0876 69:0.1917 70:0.1931 71:0.275 72:0.2643 73:0.0871 74:0.3267 75:0.164 76:0.2479 77:0.223 78:0.1857 79:0.2091 80:0.2498 81:0.1601 82:0.3091 83:0.1692 84:0.2953 85:0.1479 86:0.3282 87:0.2207 88:0.2367 89:0.205 90:0.1973 91:0.2744 92:0.3206 93:0.1446 94:0.2019 95:0.2043 96:0.1579 97:0.2047 98:0.2361 99:0.1916 100:0.1616 101:0.2239 102:0.2552 103:0.299 104:0.3115 105:0.0532 106:0.1973 107:0.0846 108:0.2998 109:0.2297 110:0.1999 111:0.0942 112:0.1847 113:0.1812 114:0.2175 115:0.2831 116:0.2346 117:0.0693 118:0.1932 119:0.2699 120:0.1069 
8 1:0.2125 2:0.125 3:0.125 4:0.2875 5:0.2375 6:0.3 7:0.1875 8:0.0625 9:0.575 10:0.05 11:0.1125 12:0.125 13:0.1375 14:0.2125 15:0.125 16:0.125 17:0.275 18:0.125 19:0.1625 20:0.1375 21:0.55 22:0.1 23:0.4125 24:0.2 25:0.075 26:0.3875 27:0.3 28:0.1875 29:0.2625 30:0.175 31:0.8875 32:0.15 33:0.075 34:0.075 35:0.3875 36:0.275 37:0.2 38:0.1875 39:0.2375 40:0.05 41:0.1875 42:0.0875 43:0.2375 44:0.175 45:0.1375 46:0.025 47:0.225 48:0.2 49:0.2 50:0.25 51:0.2375 52:0.0625 53:0.125 54:0.2375 55:0.1 56:0.275 57:0.2625 58:0.15 59:0.1125 60:0.15 61:0.2446 62:0.1475 63:0.0895 64:0.1471 65:0.1584 66:0.3073 67:0.2634 68:0.1063 69:0.4114 70:0.1365 71:0.2402 72:0.2137 73:0.193 74:0.2707 75:0.2265 76:0.1158 77:0.2981 78:0.1391 79:0.2091 80:0.1868 81:0.4425 82:0.1733 83:0.2844 84:0.1973 85:0.2897 86:0.2027 87:0.2849 88:0.3091 89:0.1861 90:0.2137 91:0.1403 92:0.164 93:0.2246 94:0.1986 95:0.2043 96:0.1996 97:0.3209 98:0.3024 99:0.3046 100:0.0685 101:0.2239 102:0.1047 103:0.299 104:0.2044 105:0.2097 106:0.1158 107:0.213 108:0.2244 109:0.2234 110:0.2903 111:0.21 112:0.0851 113:0.1917 114:0.233 115:0.1383 116:0.2957 117:0.2172 118:0.1802 119:0.171 120:0.1615 
8 1:0.175 2:0.1125 3:0.25 4:0.2875 5:0.3 6:0.1625 7:0.1125 8:0.4875 9:0.1 10:0.1375 11:0.2125 12:0.1125 13:0.15 14:0.2125 15:0.175 16:0.2 17:0.0875 18:0.15 19:0.075 20:0.575 21:0.1375 22:0.225 23:0.25 24:0.0625 25:0.3625 26:0.1875 27:0.4125 28:0.2875 29:0.2625 30:0.8625 31:0.1 32:0.0375 33:0.1 34:0.45 35:0.275 36:0.2375 37:0.3 38:0.25 39:0.1125 40:0.3 41:0.1125 42:0.25 43:0.1875 44:0.15 45:0.0375 46:0.2625 47:0.225 48:0.125 49:0.375 50:0.25 51:0.075 52:0.2 53:0.375 54:0.0875 55:0.2 56:0.1625 57:0.1 58:0.1375 59:0.1125 60:0.175 61:0.1705 62:0.0884 63:0.1922 64:0.1471 65:0.2962 66:0.2928 67:0.098 68:0.36 69:0.1396 70:0.2453 71:0.2205 72:0.1629 73:0.2415 74:0.2707 75:0.1343 76:0.29 77:0.1391 78:0.1877 79:0.157 80:0.4136 81:0.2034 82:0.3091 83:0.1985 84:0.1848 85:0.1479 86:0.3363 87:0.2859 88:0.2037 89:0.1861 90:0.1343 91:0.1992 92:0.2518 93:0.1762 94:0.1454 95:0.2208 96:0.2475 97:0.3049 98:0.2746 99:0.0737 100:0.2387 101:0.1112 102:0.2478 103:0.2423 104:0.2371 105:0.0854 106:0.1733 107:0.2704 108:0.2243 109:0.2546 110:0.2182 111:0.0833 112:0.1839 113:0.289 114:0.1757 115:0.2831 116:0.2276 117:0.2095 118:0.2061 119:0.171 120:0.2307 
8 1:0.25 2:0.1875 3:0.0375 4:0.375 5:0.1125 6:0.1875 7:0.1875 8:0.125 9:0.1875 10:0.1375 11:0.125 12:0.1875 13:0.1875 14:0.2125 15:0.1 16:0.625 17:0.0875 18:0.3625 19:0.3125 20:0.0875 21:0.225 22:0.2 23:0.2 24:0.2375 25:0.2875 26:0.3875 27:0.5375 28:0.2875 29:0.1125 30:0.05 31:0.2625 32:0.175 33:0.2625 34:0.225 35:0.0875 36:0.275 37:0.05 38:0.1875 39:0.325 40:0.175 41:0.1125 42:0.275 43:0.1875 44:0.15 45:0.3125 46:0.3125 47:0.0875 48:0.175 49:0.2125 50:0.1375 51:0.2625 52:0.2125 53:0.2 54:0.1625 55:0.1625 56:0.225 57:0.1375 58:0.3375 59:0.1125 60:0.1 61:0.2958 62:0.2638 63:0.0996 64:0.3544 65:0.1472 66:0.2794 67:0.2108 68:0.1815 69:0.2268 70:0.2453 71:0.1075 72:0.2623 73:0.139 74:0.2707 75:0.166 76:0.442 77:0.1922 78:0.274 79:0.2403 80:0.1806 81:0.15 82:0.3034 83:0.3679 84:0.182 85:0.1584 86:0.2027 87:0.1299 88:0.2037 89:0.1968 90:0.1973 91:0.2243 92:0.2913 93:0.3167 94:0.2732 95:0.057 96:0.1996 97:0.0885 98:0.3024 99:0.1929 100:0.2345 101:0.1112 102:0.1814 103:0.2423 104:0.2371 105:0.3286 106:0.2056 107:0.0998 108:0.2078 109:0.2882 110:0.129 111:0.2933 112:0.2156 113:0.2069 114:0.1718 115:0.1672 116:0.1959 117:0.206 118:0.3332 119:0.171 120:0.1878 
1.362953899383653 1:0.125 2:0.1 3:0.25 4:0.325 5:0.15 6:0.1 7:0.25 8:0.3375 9:0.3125 10:0.475 11:0.175 12:0.2375 13:0.2875 14:0.4125 15:0.175 16:0.1625 17:0.275 18:0.15 19:0.1625 20:0.05 21:0.1375 22:0.3375 23:0.275 24:0.2625 25:0.2875 26:0.2875 27:0.3 28:0.0875 29:0.2 30:0.55 31:0.2625 32:0.2875 33:0.1 34:0.4125 35:0.4375 36:0.275 37:0.1875 38:0.1875 39:0.425 40:0.5 41:0.525 42:0.575 43:0.6 44:0.625 45:0.6625 46:0.7125 47:0.75 48:0.7625 49:0.7875 50:0.8125 51:0.825 52:0.8375 53:0.875 54:0.9 55:0.925 56:0.9625 57:0.975 58:0.975 59:0.975 60:1 61:0.1644 62:0.0679 63:0.1687 64:0.3087 65:0.145 66:0.126 67:0.1235 68:0.3168 69:0.3477 70:0.3845 71:0.1646 72:0.2382 73:0.2937 74:0.214 75:0.1343 76:0.2523 77:0.1911 78:0.1268 79:0.139 80:0.1032 81:0.2034 82:0.1878 83:0.1719 84:0.2264 85:0.3325 86:0.1981 87:0.221 88:0.193 89:0.2262 90:0.4234 91:0.2243 92:0.2473 93:0.1762 94:0.1902 95:0.2432 96:0.1996 97:0.2285 98:0.3591 99:0.0696 100:0.0718 101:0.0885 102:0.0981 103:0.0981 104:0.1146 105:0.1219 106:0.1268 107:0.1293 108:0.1462 109:0.1576 110:0.1622 111:0.1663 112:0.1731 113:0.1873 114:0.197 115:0.1991 116:0.2083 117:0.2129 118:0.2197 119:0.2197 120:0.2318 
5.4104684958639 1:0.175 2:0.1875 3:0.2375 4:0.2875 5:0.2 6:0.1875 7:0.0875 8:0.1375 9:0.2875 10:0.1875 11:0.175 12:0.3625 13:0.4 14:0.125 15:0.075 16:0.1 17:0.125 18:0.2 19:0.1625 20:0.2375 21:0.2625 22:0.2625 23:0.25 24:0.3 25:0.2875 26:0.2875 27:0.4125 28:0.0875 29:0.725 30:0.325 31:0.8875 32:0.075 33:0.0875 34:0.1625 35:0.25 36:0.3 37:0.3375 38:0.3625 39:0.425 40:0.5 41:0.525 42:0.575 43:0.6 44:0.625 45:0.6625 46:0.7125 47:0.75 48:0.7625 49:0.7875 50:0.8125 51:0.825 52:0.8375 53:0.875 54:0.9 55:0.925 56:0.9625 57:0.975 58:0.975 59:0.975 60:1 61:0.2238 62:0.2638 63:0.3392 64:0.1471 65:0.1621 66:0.2794 67:0.1753 68:0.173 69:0.3456 70:0.2312 71:0.1646 72:0.2778 73:0.3108 74:0.1891 75:0.1748 76:0.2069 77:0.1548 78:0.2888 79:0.139 80:0.1777 81:0.3547 82:0.3628 83:0.1985 84:0.3507 85:0.1584 86:0.1981 87:0.2859 88:0.193 89:0.4712 90:0.2667 91:0.1403 92:0.0211 93:0.0235 94:0.0454 95:0.055 96:0.0575 97:0.06 98:0.0626 99:0.0696 100:0.0718 101:0.0885 102:0.0981 103:0.0981 104:0.1146 105:0.1219 106:0.1268 107:0.1293 108:0.1462 109:0.1576 110:0.1622 111:0.1663 112:0.1731 113:0.1873 114:0.197 115:0.1991 116:0.2083 117:0.2129 118:0.2197 119:0.2197 120:0.2318 
4.012586199211158 1:0.2125 2:0.2875 3:0.2125 4:0.2875 5:0.1 6:0.3 7:0.35 8:0.4875 9:0.1875 10:0.2375 11:0.0875 12:0.2875 13:0.1 14:0.125 15:0.325 16:0.325 17:0.55 18:0.125 19:0.5875 20:0.375 21:0.2625 22:0.2875 23:0.275 24:0.2375 25:0.125 26:0.0625 27:0.5375 28:0.2875 29:0.2 30:0.3 31:0.6625 32:0.5125 33:0.6375 34:0.1 35:0.3875 36:0.1375 37:0.3125 38:0.175 39:0.2375 40:0.225 41:0.3375 42:0.1875 43:0.425 44:0.3 45:0.2 46:0.2125 47:0.25 48:0.15 49:0.2125 50:0.0625 51:0.3125 52:0.2125 53:0.1625 54:0.2375 55:0.2 56:0.2625 57:0.1 58:0.0875 59:0.175 60:0.1 61:0.2446 62:0.2738 63:0.1644 64:0.1471 65:0.097 66:0.3073 67:0.3009 68:0.36 69:0.1917 70:0.333 71:0.1391 72:0.1601 73:0.1567 74:0.2165 75:0.2122 76:0.3418 77:0.3508 78:0.1391 79:0.3517 80:0.2745 81:0.3547 82:0.2229 83:0.1719 84:0.182 85:0.1794 86:0.1508 87:0.1299 88:0.2037 89:0.205 90:0.3321 91:0.3457 92:0.1619 93:0.1634 94:0.0674 95:0.2043 96:0.1519 97:0.302 98:0.1624 99:0.2268 100:0.2565 101:0.2277 102:0.1438 103:0.2981 104:0.4304 105:0.2485 106:0.2279 107:0.2552 108:0.1375 109:0.2882 110:0.1427 111:0.4125 112:0.2042 113:0.2164 114:0.2089 115:0.2831 116:0.1514 117:0.1988 118:0.0926 119:0.2494 120:0.1069 
0.6482929283012764 1:0.2125 2:0.1875 3:0.125 4:0.3125 5:0.3625 6:0.3875 7:0.25 8:0.3375 9:0.0875 10:0.35 11:0.175 12:0.2375 13:0.35 14:0.3625 15:0.525 16:0.125 17:0.55 18:0.3625 19:0.2375 20:0.2375 21:0.1625 22:0.3375 23:0.25 24:0.125 25:0.3625 26:0.2875 27:0.3 28:0.1875 29:0.4875 30:0.55 31:0.8875 32:0.1625 33:0.6375 34:0.1625 35:0.325 36:0.225 37:0.2625 38:0.35 39:0.35 40:0.125 41:0.325 42:0.325 43:0.1875 44:0.3 45:0.25 46:0.0875 47:0.3 48:0.0875 49:0.375 50:0.25 51:0.1625 52:0.2125 53:0.2 54:0.175 55:0.175 56:0.1125 57:0.2 58:0.0875 59:0.1375 60:0.125 61:0.2446 62:0.193 63:0.0895 64:0.262 65:0.3195 66:0.3846 67:0.1235 68:0.3168 69:0.1921 70:0.2222 71:0.1646 72:0.2382 73:0.2342 74:0.3005 75:0.3548 76:0.1158 77:0.3508 78:0.3291 79:0.3165 80:0.1777 81:0.2089 82:0.1878 83:0.1985 84:0.1915 85:0.1479 86:0.1981 87:0.221 88:0.3091 89:0.1651 90:0.4234 91:0.1403 92:0.0627 93:0.1634 94:0.1359 95:0.2917 96:0.1848 97:0.2463 98:0.2361 99:0.2546 100:0.1531 101:0.3678 102:0.3807 103:0.2408 104:0.2462 105:0.2374 106:0.1745 107:0.3577 108:0.183 109:0.3604 110:0.2182 111:0.1582 112:0.2042 113:0.3078 114:0.1953 115:0.2057 116:0.0901 117:0.3413 118:0.1714 119:0.1599 120:0.1748 
8 1:0.175 2:0.225 3:0.4125 4:0.325 5:0.075 6:0.1125 7:0.1875 8:0.2375 9:0.1875 10:0.475 11:0.5 12:0.6625 13:0.525 14:0.55 15:0.525 16:0.625 17:0.2875 18:0.3625 19:0.425 20:0.375 21:0.1625 22:0.225 23:0.2 24:0.0625 25:0.2125 26:0.2125 27:0.0375 28:0.1375 29:0.2 30:0.3 31:0.0875 32:0.45 33:0.25 34:0.15 35:0.2375 36:0.4 37:0.15 38:0.4 39:0.2375 40:0.2875 41:0.3375 42:0.2125 43:0.1875 44:0.3125 45:0.3125 46:0.275 47:0.325 48:0.3 49:0.1375 50:0.3 51:0.175 52:0.1875 53:0.325 54:0.1625 55:0.15 56:0.225 57:0.325 58:0.1375 59:0.3125 60:0.3625 61:0.2238 62:0.1975 63:0.3092 64:0.3087 65:0.1947 66:0.0732 67:0.2108 68:0.2551 69:0.2268 70:0.3845 71:0.4451 72:0.4481 73:0.3307 74:0.3267 75:0.3548 76:0.442 77:0.2955 78:0.3291 79:0.3245 80:0.2745 81:0.2089 82:0.236 83:0.3679 84:0.1284 85:0.1579 86:0.1599 87:0.2096 88:0.2326 89:0.205 90:0.3321 91:0.1589 92:0.398 93:0.3278 94:0.3214 95:0.225 96:0.1932 97:0.2015 98:0.1935 99:0.2268 100:0.3322 101:0.2277 102:0.1972 103:0.2408 104:0.274 105:0.3286 106:0.4172 107:0.3669 108:0.2515 109:0.2297 110:0.3774 111:0.2113 112:0.2288 113:0.3934 114:0.1718 115:0.207 116:0.2346 117:0.3391 118:0.2061 119:0.2094 120:0.3109 
2.742406232890301 1:0.25 2:0.1875 3:0.125 4:0.2875 5:0.3625 6:0.1 7:0.2875 8:0.1375 9:0.1625 10:0.35 11:0.3375 12:0.6625 13:0.1875 14:0.1375 15:0.25 16:0.2375 17:0.2875 18:0.2625 19:0.2375 20:0.2375 21:0.0875 22:0.1875 23:0.2 24:0.0875 25:0.2375 26:0.3875 27:0.4875 28:0.6375 29:0.4875 30:0.8625 31:0.1375 32:0.1375 33:0.4125 34:0.3375 35:0.325 36:0.4 37:0.0375 38:0.1375 39:0.275 40:0.175 41:0.2375 42:0.1125 43:0.125 44:0.2125 45:0.2125 46:0.3125 47:0.225 48:0.15 49:0.025 50:0.25 51:0.0875 52:0.05 53:0.125 54:0.175 55:0.15 56:0.2625 57:0.175 58:0.15 59:0.225 60:0.175 61:0.2958 62:0.2638 63:0.0895 64:0.1471 65:0.3195 66:0.126 67:0.1954 68:0.173 69:0.1862 70:0.2222 71:0.275 72:0.4481 73:0.139 74:0.1828 75:0.3477 76:0.3103 77:0.198 78:0.2099 79:0.1147 80:0.1777 81:0.1727 82:0.1534 83:0.1652 84:0.1375 85:0.3125 86:0.2027 87:0.3532 88:0.1561 89:0.1651 90:0.1343 91:0.1453 92:0.152 93:0.3697 94:0.2044 95:0.2917 96:0.3654 97:0.0868 98:0.2553 99:0.3257 100:0.3425 101:0.2638 102:0.0737 103:0.1489 104:0.2064 105:0.2654 106:0.3 107:0.213 108:0.1375 109:0.0575 110:0.2182 111:0.1619 112:0.1415 113:0.1917 114:0.1229 115:0.207 116:0.1514 117:0.12 118:0.1502 119:0.2601 120:0.1772 
8 1:0.2375 2:0.15 3:0.2375 4:0.3125 5:0.3 6:0.175 7:0.1875 8:0.2375 9:0.2875 10:0.35 11:0.5 12:0.1375 13:0.125 14:0.55 15:0.2 16:0.4 17:0.1625 18:0.0875 19:0.5875 20:0.575 21:0.1625 22:0.2875 23:0.5 24:0.05 25:0.2125 26:0.1 27:0.2375 28:0.1875 29:0.25 30:0.0875 31:0.0875 32:0.175 33:0.1375 34:0.45 35:0.325 36:0.1625 37:0.3125 38:0.025 39:0.4 40:0.3 41:0.2 42:0.275 43:0.1125 44:0.1625 45:0.0625 46:0.2625 47:0.125 48:0.3 49:0.225 50:0.3 51:0.275 52:0.2 53:0.1625 54:0.2375 55:0.1375 56:0.0625 57:0.275 58:0.2375 59:0.2625 60:0.2375 61:0.3024 62:0.1662 63:0.3392 64:0.262 65:0.2962 66:0.2212 67:0.2766 68:0.2551 69:0.3456 70:0.2222 71:0.4451 72:0.2922 73:0.2854 74:0.3267 75:0.2843 76:0.2311 77:0.2524 78:0.1673 79:0.3517 80:0.4136 81:0.2089 82:0.1762 83:0.4033 84:0.0802 85:0.1579 86:0.06 87:0.2132 88:0.3091 89:0.2977 90:0.2025 91:0.3169 92:0.2913 93:0.3183 94:0.1454 95:0.2917 96:0.3065 97:0.302 98:0.072 99:0.4367 100:0.2387 101:0.2224 102:0.1814 103:0.1011 104:0.1667 105:0.0532 106:0.1733 107:0.1808 108:0.2515 109:0.3572 110:0.3774 111:0.303 112:0.1839 113:0.2164 114:0.2089 115:0.2426 116:0.0691 117:0.4116 118:0.2207 119:0.2992 120:0.2088 
8 1:0.25 2:0.175 3:0.2625 4:0.225 5:0.3 6:0.275 7:0.5625 8:0.3375 9:0.3125 10:0.475 11:0.1375 12:0.375 13:0.175 14:0.125 15:0.525 16:0.625 17:0.1375 18:0.2 19:0.5875 20:0.05 21:0.1375 22:0.0625 23:0.175 24:0.25 25:0.2375 26:0.225 27:0.5375 28:0.1625 29:0.1875 30:0.3125 31:0.2375 32:0.2875 33:0.4125 34:0.1 35:0.4875 36:0.275 37:0.15 38:0.1375 39:0.1125 40:0.1375 41:0.05 42:0.275 43:0.0875 44:0.3 45:0.2625 46:0.275 47:0.3 48:0.175 49:0.1 50:0.25 51:0.1875 52:0.075 53:0.325 54:0.2375 55:0.2 56:0.225 57:0.275 58:0.0625 59:0.275 60:0.1375 61:0.2958 62:0.2263 63:0.3151 64:0.3165 65:0.2962 66:0.2 67:0.3503 68:0.3168 69:0.3477 70:0.3845 71:0.2933 72:0.2684 73:0.2796 74:0.1891 75:0.3548 76:0.442 77:0.223 78:0.2322 79:0.3517 80:0.1032 81:0.142 82:0.0708 83:0.2131 84:0.2969 85:0.3125 86:0.2378 87:0.1299 88:0.327 89:0.2815 90:0.2271 91:0.3792 92:0.2473 93:0.3697 94:0.0674 95:0.3898 96:0.1996 97:0.2015 98:0.2187 99:0.0737 100:0.197 101:0.0513 102:0.1814 103:0.2269 104:0.2462 105:0.2448 106:0.4172 107:0.3577 108:0.2078 109:0.1462 110:0.2182 111:0.2869 112:0.0654 113:0.3934 114:0.2089 115:0.2831 116:0.2346 117:0.4116 118:0.0713 119:0.2021 120:0.1422 
8 1:0.725 2:0.7 3:0.6625 4:0.65 5:0.65 6:0.625 7:0.625 8:0.6125 9:0.6125 10:0.6125 11:0.6125 12:0.6 13:0.5875 14:0.575 15:0.5625 16:0.5625 17:0.5375 18:0.525 19:0.5 20:0.475 21:0.4125 22:0.3625 23:0.3125 24:0.3125 25:0.2625 26:0.2375 27:0.15 28:0.2625 29:0.25 30:0.275 31:0.2875 32:0.4 33:0.25 34:0.1625 35:0.4375 36:0.0875 37:0.1375 38:0.3 39:0.1625 40:0.3375 41:0.15 42:0.2125 43:0.1875 44:0.15 45:0.1625 46:0.1125 47:0.225 48:0.3875 49:0.1875 50:0.25 51:0.2375 52:0.2 53:0.325 54:0.25 55:0.1625 56:0.1875 57:0.2125 58:0.075 59:0.1625 60:0.35 61:0.1924 62:0.1849 63:0.1781 64:0.1692 65:0.1625 66:0.1604 67:0.1506 68:0.1434 69:0.1362 70:0.1339 71:0.1293 72:0.122 73:0.1077 74:0.1055 75:0.091 76:0.0866 77:0.0866 78:0.0817 79:0.0769 80:0.0674 81:0.058 82:0.0534 83:0.0463 84:0.0424 85:0.0331 86:0.0264 87:0.1028 88:0.2367 89:0.2977 90:0.2664 91:0.1514 92:0.1868 93:0.3278 94:0.2444 95:0.2432 96:0.1565 97:0.2047 98:0.3418 99:0.1911 100:0.3922 101:0.1602 102:0.1972 103:0.3764 104:0.2371 105:0.1424 106:0.1192 107:0.213 108:0.4295 109:0.2254 110:0.2903 111:0.2766 112:0.1847 113:0.3934 114:0.2376 115:0.1672 116:0.2525 117:0.3056 118:0.0539 119:0.2314 120:0.3758 
8 1:0.175 2:0.5125 3:0.125 4:0.225 5:0.3625 6:0.3375 7:0.35 8:0.3375 9:0.575 10:0.175 11:0.0875 12:0.1875 13:0.4 14:0.175 15:0.25 16:0.175 17:0.275 18:0.3625 19:0.2625 20:0.2375 21:0.3 22:0.275 23:0.175 24:0.1 25:0.5625 26:0.125 27:0.3875 28:0.2875 29:0.725 30:0.325 31:0.2875 32:0.2875 33:0.2125 34:0.1875 35:0.2375 36:0.275 37:0.2 38:0.325 39:0.1625 40:0.3375 41:0.2875 42:0.25 43:0.1875 44:0.175 45:0.1625 46:0.3 47:0.125 48:0.3875 49:0.375 50:0.3 51:0.2125 52:0.3125 53:0.2 54:0.225 55:0.1125 56:0.15 57:0.1375 58:0.3375 59:0.175 60:0.2125 61:0.2558 62:0.4012 63:0.1189 64:0.3165 65:0.3195 66:0.3321 67:0.3009 68:0.3168 69:0.4114 70:0.253 71:0.0734 72:0.2623 73:0.3108 74:0.1388 75:0.3477 76:0.1918 77:0.1911 78:0.274 79:0.2994 80:0.2784 81:0.348 82:0.2752 83:0.2981 84:0.0887 85:0.3653 86:0.0817 87:0.3869 88:0.2037 89:0.4712 90:0.2667 91:0.1514 92:0.2473 93:0.3043 94:0.2713 95:0.1945 96:0.2914 97:0.2399 98:0.2145 99:0.1701 100:0.3922 101:0.325 102:0.2478 103:0.3764 104:0.1468 105:0.1424 106:0.2654 107:0.1764 108:0.4295 109:0.3604 110:0.3774 111:0.2221 112:0.3146 113:0.2069 114:0.2967 115:0.1617 116:0.262 117:0.206 118:0.3332 119:0.2494 120:0.2971 
8 1:0.05 2:0.1125 3:0.25 4:0.3125 5:0.15 6:0.1625 7:0.1375 8:0.375 9:0.2375 10:0.2875 11:0.225 12:0.3625 13:0.2875 14:0.1625 15:0.125 16:0.625 17:0.15 18:0.3625 19:0.2375 20:0.575 21:0.3 22:0.1875 23:0.175 24:0.3 25:0.2875 26:0.375 27:0.05 28:0.1375 29:0.15 30:0.2125 31:0.6625 32:0.45 33:0.2625 34:0.4625 35:0.075 36:0.225 37:0.2875 38:0.175 39:0.4 40:0.3375 41:0.2875 42:0.275 43:0.1875 44:0.15 45:0.3125 46:0.0875 47:0.2 48:0.2625 49:0.375 50:0.2625 51:0.2625 52:0.3125 53:0.1625 54:0.0875 55:0.1625 56:0.2625 57:0.0875 58:0.2125 59:0.1625 60:0.35 61:0.2009 62:0.0884 63:0.2628 64:0.262 65:0.145 66:0.2827 67:0.1662 68:0.2136 69:0.2514 70:0.246 71:0.266 72:0.2778 73:0.2937 74:0.254 75:0.0824 76:0.442 77:0.071 78:0.274 79:0.1147 80:0.4136 81:0.2296 82:0.1534 83:0.2131 84:0.3507 85:0.3325 86:0.2487 87:0.1643 88:0.2326 89:0.3106 90:0.2138 91:0.3457 92:0.398 93:0.3167 94:0.4045 95:0.1377 96:0.1848 97:0.258 98:0.1624 99:0.4367 100:0.3922 101:0.325 102:0.1814 103:0.3764 104:0.2371 105:0.3286 106:0.1745 107:0.2893 108:0.2324 109:0.2546 110:0.242 111:0.2933 112:0.3146 113:0.2164 114:0.1757 115:0.1672 116:0.1514 117:0.0693 118:0.2473 119:0.2567 120:0.3758 
4.774404085110804 1:0.2125 2:0.5125 3:0.4375 4:0.3875 5:0.1875 6:0.175 7:0.15 8:0.2 9:0.3125 10:0.475 11:0.175 12:0.1125 13:0.35 14:0.55 15:0.125 16:0.1 17:0.2375 18:0.2375 19:0.2375 20:0.2125 21:0.3 22:0.2 23:0.4125 24:0.75 25:0.2875 26:0.225 27:0.3 28:0.1875 29:0.075 30:0.2125 31:0.2375 32:0.2375 33:0.6375 34:0.1625 35:0.25 36:0.3 37:0.3375 38:0.3625 39:0.425 40:0.5 41:0.525 42:0.575 43:0.6 44:0.625 45:0.6625 46:0.7125 47:0.75 48:0.7625 49:0.7875 50:0.8125 51:0.825 52:0.8375 53:0.875 54:0.9 55:0.925 56:0.9625 57:0.975 58:0.975 59:0.975 60:1 61:0.2148 62:0.4012 63:0.3756 64:0.299 65:0.2119 66:0.1212 67:0.2052 68:0.3124 69:0.3477 70:0.3845 71:0.214 72:0.1629 73:0.2342 74:0.3267 75:0.2111 76:0.2069 77:0.3524 78:0.2003 79:0.3249 80:0.315 81:0.2296 82:0.3034 83:0.2844 84:0.3441 85:0.3325 86:0.2378 87:0.221 88:0.3091 89:0.1958 90:0.2138 91:0.3792 92:0.3885 93:0.1634 94:0.0454 95:0.055 96:0.0575 97:0.06 98:0.0626 99:0.0696 100:0.0718 101:0.0885 102:0.0981 103:0.0981 104:0.1146 105:0.1219 106:0.1268 107:0.1293 108:0.1462 109:0.1576 110:0.1622 111:0.1663 112:0.1731 113:0.1873 114:0.197 115:0.1991 116:0.2083 117:0.2129 118:0.2197 119:0.2197 120:0.2318 
8 1:0.2375 2:0.2125 3:0.125 4:0.1875 5:0.225 6:0.3375 7:0.5625 8:0.175 9:0.1125 10:0.35 11:0.5 12:0.125 13:0.1375 14:0.1625 15:0.15 16:0.2 17:0.1625 18:0.3625 19:0.425 20:0.2375 21:0.55 22:0.2 23:0.1625 24:0.2 25:0.2375 26:0.075 27:0.175 28:0.6375 29:0.25 30:0.275 31:0.025 32:0.075 33:0.0875 34:0.1625 35:0.25 36:0.3 37:0.3375 38:0.3625 39:0.425 40:0.5 41:0.525 42:0.575 43:0.6 44:0.625 45:0.6625 46:0.7125 47:0.75 48:0.7625 49:0.7875 50:0.8125 51:0.825 52:0.8375 53:0.875 54:0.9 55:0.925 56:0.9625 57:0.975 58:0.975 59:0.975 60:1 61:0.3024 62:0.2668 63:0.1189 64:0.2393 65:0.3001 66:0.3321 67:0.3503 68:0.2279 69:0.1624 70:0.2222 71:0.4451 72:0.2137 73:0.2334 74:0.3453 75:0.2186 76:0.29 77:0.2524 78:0.274 79:0.3245 80:0.2784 81:0.4425 82:0.3034 83:0.2138 84:0.1973 85:0.3125 86:0.2137 87:0.2157 88:0.1561 89:0.2977 90:0.2664 91:0.0094 92:0.0211 93:0.0235 94:0.0454 95:0.055 96:0.0575 97:0.06 98:0.0626 99:0.0696 100:0.0718 101:0.0885 102:0.0981 103:0.0981 104:0.1146 105:0.1219 106:0.1268 107:0.1293 108:0.1462 109:0.1576 110:0.1622 111:0.1663 112:0.1731 113:0.1873 114:0.197 115:0.1991 116:0.2083 117:0.2129 118:0.2197 119:0.2197 120:0.2318 
5.418943074916322 1:0.45 2:0.3375 3:0.0375 4:0.3125 5:0.2375 6:0.3375 7:0.075 8:0.0875 9:0.1875 10:0.15 11:0.3 12:0.375 13:0.1875 14:0.3625 15:0.1 16:0.1625 17:0.275 18:0.2625 19:0.3125 20:0.175 21:0.1875 22:0.225 23:0.175 24:0.075 25:0.2875 26:0.375 27:0.2375 28:0.7125 29:0.2375 30:0.275 31:0.2625 32:0.45 33:0.6375 34:0.1625 35:0.225 36:0.3125 37:0.15 38:0.3875 39:0.4 40:0.1375 41:0.325 42:0.2125 43:0.1875 44:0.3 45:0.0625 46:0.175 47:0.1625 48:0.3 49:0.7875 50:0.8125 51:0.825 52:0.8375 53:0.875 54:0.9 55:0.925 56:0.9625 57:0.975 58:0.975 59:0.975 60:1 61:0.4019 62:0.2884 63:0.0996 64:0.262 65:0.1584 66:0.3321 67:0.092 68:0.0876 69:0.1917 70:0.2099 71:0.2184 72:0.2684 73:0.139 74:0.3005 75:0.166 76:0.2151 77:0.1911 78:0.2099 79:0.2403 80:0.1124 81:0.1804 82:0.236 83:0.2981 84:0.1372 85:0.1584 86:0.2487 87:0.2132 88:0.4065 89:0.175 90:0.2664 91:0.2243 92:0.398 93:0.1634 94:0.1359 95:0.254 96:0.325 97:0.2015 98:0.3398 99:0.4367 100:0.197 101:0.3678 102:0.1972 103:0.3764 104:0.2462 105:0.1351 106:0.2976 107:0.2493 108:0.2515 109:0.1576 110:0.1622 111:0.1663 112:0.1731 113:0.1873 114:0.197 115:0.1991 116:0.2083 117:0.2129 118:0.2197 119:0.2197 120:0.2318 
